169439 100
the 0.04129915 0.012221829 -0.2136245 -0.08335969 0.4054287 -0.2141251 0.23723575 0.2861798 -0.023403594 0.69208676 0.18191653 -0.27909037 -0.3565843 0.006333656 0.17189187 0.22732481 -0.19492863 0.025432456 -0.38023642 -0.20240563 -0.11278938 -0.03467006 -0.14709133 0.10927125 -0.281771 0.21948166 0.16726549 -0.1129166 -0.06048779 0.35602206 0.11419222 0.13847487 -0.23098835 -0.36350426 -0.10216353 1.29045475e-05 0.3934113 -0.40241304 -0.13385502 0.2695425 0.30972645 -0.048396345 -0.212372 -0.0006640055 0.17446063 0.28553134 0.19706284 -0.011314061 0.6845605 0.086736426 -0.02128664 -0.3263348 0.020294508 0.19877231 0.025163341 0.097965404 -0.23041752 0.04704113 -0.10811986 0.14414345 -0.07380002 -0.052610826 0.23247159 0.19803403 0.02362771 -0.49336284 -0.2601425 -0.06282773 0.051897984 0.43072063 0.10266672 -0.37728766 -0.014775544 -0.17358609 0.10716259 0.06573878 0.043970518 -0.20563176 -0.28392404 0.4745247 -0.15126762 0.26858303 -0.22494708 -0.105259046 -0.051537562 -0.27103147 0.16506107 -0.06621148 0.26813602 0.082367964 0.115902446 -0.34668994 0.2907131 -0.16152443 -0.10270514 0.43272942 -0.4549059 -0.17856054 0.15517634 -0.36419967
. -0.062325038 -0.35540214 -0.5431671 0.12955257 -0.001132136 -0.64878803 0.48033166 -0.033463106 -0.00038527415 0.38276994 -0.16855074 -0.60408306 0.33132476 -0.4566076 0.18364784 0.035332788 -0.1692408 0.06958435 -0.27921164 -0.28563473 0.15978818 -0.36234322 0.20858958 0.1352465 0.011645619 0.0017202105 0.0013421181 -0.35736838 0.09845234 0.19799678 -0.16389216 -0.11494133 -0.2885831 -0.34718287 -0.16694395 0.0077713784 0.08098701 -0.525276 -0.8614373 0.0963923 0.4156731 -0.14708173 -0.17353459 0.109434344 0.09027948 0.25756428 0.273929 0.14304823 0.40902472 -0.34822053 0.05275336 -0.64012426 -0.026436735 -0.30231884 -0.23946726 -0.26273626 -0.17635784 -0.6815511 -0.121863514 0.09080431 -0.31423265 0.07404243 -0.12166134 0.5316586 -0.5307454 -0.40336043 -0.010038247 -0.29486433 0.5606503 -0.14971721 -0.155258 -0.6850356 -0.26335275 0.07786772 0.22201884 -0.06932198 -0.23574512 -0.17563726 -0.30157304 0.23118062 -0.013185581 0.60580283 -0.24194703 -0.13610666 0.20584945 -0.087033674 -0.11810517 0.11592284 0.3025851 -0.37772912 0.2200191 -0.4223754 0.65999 -0.19069703 -0.2860091 0.74533886 -0.19201478 0.5580008 -0.2627578 0.16127732
, 0.074892424 -0.026671056 -0.52788085 -0.007979234 0.18826586 -0.28726822 0.4399052 -0.022715209 -0.21925229 0.38294026 -0.0130828675 -0.68046886 0.14083862 -0.27688605 0.1323082 0.15405044 0.033030123 0.20680472 -0.43158782 -0.21946242 0.15206681 -0.11496293 0.042019695 0.012402487 -0.17322914 0.02907063 0.12420401 -0.35942745 -0.21330902 0.0651005 0.09902584 0.25553343 -0.11828372 -0.34696946 -0.17823817 -0.10211802 0.23208556 -0.44377127 -0.637655 0.028988203 0.18682706 -0.080613784 -0.33224547 0.5225537 0.101886384 0.023869108 0.11732664 0.29071698 0.5365607 -0.0012619374 0.22773132 -0.65493494 0.19323675 0.08372739 0.006243088 -0.21903473 -0.3159375 -0.25743276 0.077719145 -0.024515366 -0.32602566 -0.027683238 -0.043354884 0.34457466 -0.2335169 -0.354454 -0.25100246 -0.15223742 0.14467168 0.12937209 -0.046916842 -0.5007457 -0.025221968 -0.0042683044 0.07298014 -0.028856035 -0.06407678 -0.31485906 -0.25326127 0.21117757 -0.25396535 0.39176622 -0.10135307 -0.23813137 0.14487958 -0.44354233 0.28517443 -0.056557775 0.13726354 -0.23193529 0.13727024 -0.3413275 0.40706947 -0.036686733 -0.3248752 0.4358789 -0.54171497 0.31886655 -0.10956023 0.10324221
) 0.39575037 0.055163767 -0.334416 0.25634328 -0.122745775 -0.119963855 0.3716464 -0.40069056 -0.13903761 0.22113164 0.0851837 -0.33261284 0.16130553 -0.4807075 0.2295974 0.27338022 -0.7365584 0.33367798 -0.6758454 -0.43618512 0.073907785 -0.16634093 -0.023971494 0.4050006 -0.39372054 -0.009169631 0.23753707 -0.28128913 0.034580916 0.28944585 0.13138065 0.13084735 -0.2090767 -0.21537745 0.0961583 0.06893378 0.20678471 -0.61968035 -0.20486327 -0.02864998 -0.10304003 -0.5408938 -0.44345152 0.21599849 0.14965408 0.21994254 0.28394607 -0.055749685 0.6914385 -0.13081615 0.18740082 -0.5712815 -0.34659442 -0.07118144 -0.25457534 -0.41399458 -0.16363227 -0.26431543 0.030656533 0.10788559 -0.27593723 0.18109669 -0.36508912 0.39273012 -0.3132503 -0.58592236 0.00012096153 -0.022739137 0.014251683 0.10816298 -0.029586392 -0.47563848 0.20244937 -0.124121964 0.21637073 0.030004494 0.036362924 -0.30739895 -0.26983938 0.23316611 -0.25220507 0.56434643 -0.24641396 -0.4276436 -0.3371406 -0.48189953 0.30985644 -0.0015350694 0.29808494 -0.19565518 0.21424173 -0.20003097 0.4808646 0.043531325 -0.08837178 0.3713538 -0.4831492 0.040809162 -0.03493891 0.12732807
( 0.27870715 0.01224347 -0.3103075 0.30524653 -0.13301452 -0.15447052 0.3792991 -0.4060453 -0.06087014 0.16318265 0.1414227 -0.21025649 0.23846482 -0.37886187 0.18409865 0.27454436 -0.7206784 0.14673746 -0.6898706 -0.3631003 0.0917653 -0.28815228 0.008160536 0.27974084 -0.43080807 0.018663742 0.22312568 -0.26816797 -0.012811527 0.3413675 0.045183454 0.048240755 -0.24921538 -0.12767416 0.085336454 0.086129665 0.17173544 -0.54475605 -0.34763557 -0.14492318 -0.2633865 -0.57502705 -0.41820827 0.28251395 0.11443396 0.11833826 0.2855731 -0.08029481 0.6898985 -0.055153422 0.13975254 -0.7041645 -0.39382875 -0.04026391 -0.21801953 -0.46500957 -0.21652973 -0.09230796 -0.022612056 0.13531809 -0.14937213 0.003192865 -0.5585152 0.4585729 -0.3923764 -0.58590406 -0.04568003 0.06413898 0.09370705 0.046140548 -0.18607171 -0.56296504 0.15521944 1.35788305e-05 0.18436655 0.009543396 0.030972777 -0.40781564 -0.21752235 0.33576375 -0.27698356 0.37718678 -0.11315356 -0.6528042 -0.45777604 -0.5450521 0.20127103 -0.06668543 0.19076945 -0.18463185 0.27702263 -0.25941828 0.6507312 0.21365471 -0.030562103 0.3988238 -0.452073 0.06502657 -0.25786272 0.20548084
of 0.08804486 -0.18388203 -0.19722205 0.13860923 0.29570812 -0.42922047 0.2659408 0.26008016 -0.23172647 0.42089304 0.23166847 -0.5515443 -0.26450276 -0.21762967 0.03460822 0.14267184 -0.08165978 -0.106729016 -0.2576054 -0.5049292 0.17858034 -0.023894103 -0.06993046 -0.0071184128 -0.3853283 0.09753519 0.21695484 -0.3954787 -0.24311464 0.18846035 -0.016987948 0.04682486 -0.16484554 -0.16262227 -0.22836187 -0.1906913 0.5471252 -0.4663956 -0.4540779 0.16304722 0.31171688 -0.25707808 -0.06630491 0.11808404 -0.003073702 0.17710093 0.29742166 0.029146751 0.4859537 -0.044732057 0.11887854 -0.43243417 -0.2148451 0.101440296 -0.12927479 0.026502728 -0.2939523 0.07518577 -0.22199106 -0.029941987 -0.22643444 -0.09202462 0.00262325 0.3230453 -0.21292335 -0.6773402 -0.30331066 0.0050072432 0.17856117 0.47021163 -0.040641684 -0.48992476 -0.18414351 0.06483775 -0.085576914 0.08190216 0.26172572 -0.120762065 0.056740165 0.51994467 -0.20503257 0.34710574 -0.22587821 -0.11218281 0.0016842051 -0.37505588 0.3904664 -0.26641592 0.20099254 0.0027602229 0.061084952 -0.26963478 0.08328326 -0.49122274 -0.094526894 0.35265446 -0.12277131 0.12781115 0.07189665 -0.4501938
D 0.2851589 0.064565934 -0.74329287 0.15983656 0.11660908 -0.23449014 0.5661689 -0.113392405 -0.05205473 0.19069342 0.04687323 0.01889079 -0.010922002 0.06870257 0.52233845 0.1587792 -0.74838424 0.11669497 -0.45167434 -0.29537934 0.08375282 -0.26283446 0.41027063 0.08958885 -0.15257227 0.16029368 0.5426947 0.0047877016 0.1954856 0.43809986 -0.093378834 -0.009254749 -0.21681824 -0.5150957 0.2049904 -0.019329445 0.14596356 -0.4292837 -0.59518284 -0.056131527 0.05779784 -0.56849366 -0.12466834 0.12129724 0.5720754 0.14766166 0.27268514 0.5978949 0.69929075 -0.5359092 0.31271216 -0.4245034 -0.12165428 -0.026117984 0.03706532 -0.3292382 0.047162857 -0.14310193 -0.061977476 -0.026958479 -0.3958664 0.1724065 -0.70912325 0.86661464 -0.6064771 -0.16537975 -0.12595488 -0.091334455 -0.100074254 -0.02502167 -0.35277918 -0.4526413 0.0552996 -0.011400434 0.37465206 -0.12665524 -0.028088003 -0.335518 -0.7508625 0.50048655 -0.7705651 0.2829661 -0.13064072 -0.387563 -0.3955394 -0.74563843 -0.11203895 -0.2304241 -0.08285088 0.02975348 -0.048902225 -0.31267986 0.5943407 0.065004684 -0.31426844 0.35025507 -0.22431174 0.36656302 -0.45103255 -0.17493545
to -0.16023049 -0.018226732 -0.28623918 -0.13042337 0.34872139 -0.18973452 0.01529785 0.4178028 0.013578031 0.48194802 0.10876292 -0.44735646 -0.32512063 0.22412357 0.086224265 0.14306524 -0.47332856 0.26437914 -0.51184213 -0.51587003 0.12232456 0.13160515 -0.43437436 0.20730545 -0.3278304 0.5106741 0.37883708 -0.041192845 0.26346442 -0.040494498 0.3564505 -0.075988196 -0.10952046 -0.17795353 -0.14201337 -0.10875676 0.45900133 0.061750304 -0.28752428 0.39065123 0.30565375 -0.060460743 -0.086946934 0.2360082 0.026819367 0.37097797 0.082398005 -0.03926012 0.48381597 0.107501835 0.10914822 -0.11489419 -0.26442596 -0.067726254 -0.16789213 -0.31949985 -0.22200127 0.032915965 0.099056214 0.12243376 -0.28320467 0.036163766 0.1874419 -0.073651545 -0.03951466 -0.35877955 -0.3934842 -0.22159041 0.30786613 0.24673419 0.03495479 -0.5489312 -0.13837619 -0.29946452 -0.13204847 -0.05648684 0.24889176 -0.12274058 -0.33298278 0.59035265 -0.096117646 0.46810916 -0.066434324 -0.1921771 -0.19435339 0.06086405 0.29094514 -0.08021459 0.42788652 0.04287241 0.3322424 -0.085812174 0.5009389 -0.006943479 -0.31665462 0.37996373 -0.015077215 -0.03767616 -0.2180293 -0.014643965
in 0.020447928 -0.2520159 -0.2028405 -0.13389568 0.09070205 -0.23608282 0.46530145 0.30267522 -0.05699645 0.6614883 0.25944978 -0.34858406 -0.2585805 -0.1655319 -0.3446525 0.32105288 -0.21604724 0.089137845 -0.43491194 -0.5834987 -0.0217814 0.1339604 0.03825646 0.07212789 -0.4464988 0.1770041 -0.09909722 -0.15077838 0.26615402 -0.14188246 0.057755347 -0.017863033 -0.06914032 -0.25929883 -0.18693298 -0.25329798 0.4176665 -0.40229303 -0.11636596 0.05151872 -0.061490506 -0.19793844 -0.26403883 0.2503994 -0.1221765 0.08033453 0.22046202 0.17820688 0.5718498 -0.12801793 0.033391796 -0.3490091 -0.34563276 -0.2130163 -0.21999681 -0.09460802 -0.39372396 -0.122522384 0.2247333 -0.08350572 -0.10253055 -0.10804666 0.07847025 0.25025743 0.08552905 -0.37869337 -0.42597133 0.099470325 0.17741513 0.27668205 -0.039008025 -0.39672998 -0.15210006 0.19843546 0.23125014 0.057886776 -0.19826952 0.015401277 -0.25610188 0.46766064 -0.28591004 0.5753328 -0.2998419 -0.07750226 0.081084505 -0.26722974 0.52585 -0.20468076 0.24193099 -0.031919613 -0.027455749 -0.11731409 0.49609372 -0.3821748 -0.12147091 0.25247657 -0.4941611 0.10129635 0.028213523 -0.25527415
a 0.104611404 -0.0024729439 -0.5153927 -0.07944598 0.35142472 -0.25649863 0.48979366 0.0815088 0.16736038 0.79147506 -0.033364676 -0.1864535 -0.20183398 -0.053197578 0.0616524 0.2776682 -0.7468084 0.17626347 -0.27886546 0.056420032 -0.038366355 -0.016188348 -0.18328018 0.22772579 -0.020872455 -0.14927015 0.42440265 -0.10223697 -0.31386134 0.39772773 0.4147567 -0.16188578 -0.011072512 -0.35773605 0.037649106 -0.21252963 0.6167146 -0.23527929 -0.12220376 -0.09435168 -0.15326932 -0.28515807 -0.16469349 0.03954811 0.16263501 0.04113443 0.30596998 -0.24511966 0.4563156 0.16930218 -0.022853445 -0.23438573 -0.13547781 0.039260466 -0.11410385 -0.034201473 -0.2145515 0.07701409 -0.06816657 0.017651077 -0.2978374 0.14714417 0.11944098 0.17603587 0.066328645 -0.24964257 -0.43089524 0.12579109 0.032528393 0.55049145 -0.1564192 -0.34452426 0.23555495 -0.21788807 0.14673701 -0.10809343 -0.08347169 -0.3633157 -0.56000113 0.5524162 -0.0024786605 0.25657868 -0.31315503 -0.17425771 -0.034964513 -0.33131593 -0.034072015 -0.059406187 -0.1698435 0.04439204 0.1517907 -0.4413355 0.22614214 0.08306657 -0.09922697 0.3763819 -0.72012246 0.058496 0.10626339 0.015982289
and 0.16655985 -0.12389544 -0.5245496 -0.085488684 0.40860185 -0.3438295 0.30420628 0.19557053 0.032012634 0.4668548 0.17383534 -0.47578627 -0.15825924 -0.40535298 0.07794858 0.2336737 -0.22827837 -0.024920445 -0.41747937 -0.50581145 0.19237463 0.10981217 -0.1272942 0.025544528 -0.17975955 0.16148683 0.2840755 -0.1891809 -0.102234736 0.21869719 0.037591983 0.22797999 -0.14622693 -0.18375425 0.013072069 0.014616757 0.5260328 -0.2472158 -0.25274086 0.27487808 0.32700863 -0.13223353 -0.21912117 0.25515524 0.10902498 0.04233605 0.2588833 0.14288737 0.49079925 -0.057501286 -0.036350366 -0.3021107 -0.056039046 0.11387465 -0.11493138 -0.010937808 -0.30164734 -0.02844424 0.18644017 -0.09130462 -0.11909231 0.018067082 0.04222077 0.30512887 -0.0674441 -0.39988342 -0.2065468 -0.087690055 0.099447064 0.10324061 0.025079178 -0.5360748 -0.15432055 -0.0042173867 0.21115097 0.030699534 0.045449466 -0.21979368 -0.08492264 0.4491793 -0.19195358 0.16633315 -0.21135351 0.112676874 0.06559568 -0.10300967 0.33372506 -0.08195175 0.44626895 -0.18936136 0.24549647 -0.15811798 0.39466116 -0.10589214 -0.2404243 0.22966717 -0.44627023 0.105356835 0.0815152 0.038679086
DD -0.071315154 0.12843858 -0.66824085 0.20776182 -0.044326413 -0.23174827 0.5061024 -0.33317757 -0.11618579 -0.051451463 0.007910601 -0.16593537 0.09090364 0.20641102 0.10859816 0.42028326 -0.705854 0.28182098 -0.50221837 -0.22274509 0.13865471 -0.2828656 0.17636824 0.2158687 -0.16017099 -0.28003672 0.4150526 0.06527744 0.032211866 0.40164223 -0.12996654 0.33253017 -0.36202088 -0.40672436 -0.02317281 0.028828256 0.15751058 -0.36920503 -0.57567096 -0.1863961 0.12780716 -0.40616807 -0.59783375 0.1876906 0.34877038 0.5885767 0.087367535 0.20574982 0.65913165 -0.3458243 0.26409227 -0.30531284 0.08010781 -0.09844351 0.2223561 -0.019344404 -0.10353028 -0.20526655 -0.13304086 0.0027219648 0.027845157 0.24530418 -0.4645268 0.8151265 -0.50340295 -0.30322996 -0.36309925 -0.33044064 0.13347894 0.4446334 0.034687817 -0.44180152 -0.28663668 -0.08448456 0.43731683 -0.30761692 -0.11400172 -0.28806177 -0.57030797 0.34726012 -0.122445166 0.45935655 -0.23660766 -0.34805882 -0.1536939 -0.6850646 0.13192888 -0.20069647 0.44170538 -0.32914618 0.23147215 -0.0321719 0.73840374 -0.034189496 -0.05353928 0.44538352 -0.24319662 0.43204805 -0.27217147 0.024993373
DDDD -0.007283689 -0.13313338 -0.29526395 0.2299292 -0.21338299 -0.31454512 0.41378236 -0.53536487 -0.07402317 0.022871848 -0.052159037 -0.2650605 0.23282082 -0.27562913 0.31741032 0.05801391 -0.515105 0.24997102 -0.577016 -0.47259504 0.010055087 -0.32381943 0.19645585 0.07086865 -0.10253233 0.055626184 0.06982103 -0.38731986 0.2740836 0.40407836 -0.13448626 0.27109343 -0.29239395 -0.4380912 0.020589923 -0.002064264 -0.32805592 -0.46694604 -0.4855792 -0.27090672 0.19652791 -0.21280748 -0.4740361 -0.10181501 0.24399678 0.42596802 0.29694614 0.3289237 0.88899094 -0.061629 0.31230757 -0.6776348 -0.15236062 -0.25052717 -0.044458523 -0.27667278 -0.037562788 -0.43157113 -0.038229924 0.4757714 -0.19365773 0.26877466 -0.20375724 0.49452093 -0.42242527 -0.3001798 -0.1054365 -0.14116433 0.16845432 0.29933938 -0.008067153 -0.71183205 -0.04836134 0.034796022 0.35188574 -0.21042377 0.06103406 -0.3259673 -0.5977192 0.3889348 -0.33170918 0.09652801 -0.0721029 -0.25655848 -0.021206345 -0.60368437 0.24817918 0.21592477 0.55185926 -0.22008425 0.0043969695 -0.30430427 0.60901344 -0.029696967 0.23140998 0.18819933 -0.48967895 0.51041454 -0.15608616 0.12998828
or 0.27437884 -0.045155343 -0.36895102 0.0038156994 0.23546183 -0.32429135 0.06412909 0.18252249 -0.17562845 0.4165531 0.25269303 -0.49385944 -0.03447665 -0.20924342 -0.16930164 0.16250215 -0.4379214 -0.066439 -0.23507938 -0.22098173 0.0792818 0.052045096 -0.3149407 0.093131155 -0.223588 0.19511436 0.26289776 -0.13753642 0.0871765 0.1672094 0.18682565 0.073726006 -0.27782738 0.0022089246 0.21376723 -0.07558836 0.28830898 -0.11904966 0.13844478 0.21987446 0.41274294 -0.28247845 0.010317417 0.33223718 -0.13397186 0.061635774 0.30129635 -0.05595269 0.38179702 0.11406971 -0.03165605 0.0004538481 -0.22752891 0.13329941 0.047452126 -0.12971471 -0.08956026 0.0990257 0.055520516 0.06700462 -0.10573838 -0.15457727 0.12660885 0.10369288 -0.06817514 -0.07789415 -0.3461297 0.029580697 0.22106111 0.6241229 -0.14474602 -0.6635885 -0.13129647 -0.08472851 0.21993409 0.25875396 0.25270167 -0.32373664 -0.37218273 0.45970434 -0.09082044 0.24606964 -0.3415687 -0.03625481 0.028106987 0.031311 0.27623653 -0.25108823 0.07604178 0.14646076 0.23813353 -0.12721519 0.40209395 -0.17139342 -0.28400353 0.3857335 -0.54414 -0.14642474 -0.047418684 -0.36816773
for -0.054107144 0.0021322276 -0.47425357 -0.14757438 0.154999 -0.23308432 0.21816713 0.24947208 -0.08039193 0.42323342 0.24944974 -0.53882694 -0.048383698 -0.29970464 0.10872049 0.24744388 -0.33885813 -0.06944243 -0.08861718 -0.45974767 -0.031301945 0.16262646 -0.11952867 0.09003606 -0.4277256 0.20664231 0.5241352 -0.06275319 -0.11949265 0.08608741 0.2582836 -0.12196927 0.0007548315 -0.26596355 -0.076664254 -0.33441967 0.6396283 -0.23640902 -0.28390613 0.15387 0.29446346 -0.18167786 -0.36937058 0.23833996 0.048066624 0.22271253 0.28039944 -0.047139052 0.5189879 -0.11422716 -0.14806645 -0.29500535 -0.09407969 -0.17466916 -0.21147309 0.15289006 0.040809087 0.040246114 -0.041883577 -0.04255055 -0.21780689 -0.07395918 0.301477 0.12328016 -0.011602772 -0.7506607 -0.13554937 0.012746223 0.147001 0.286497 -0.11679726 -0.62598354 -0.07983841 0.174888 -0.41673952 -0.15612811 -0.09798104 -0.17151664 -0.13809578 0.7933699 -0.20613153 -0.0396759 0.110665165 0.23446718 0.31296408 -0.40599585 0.19288553 -0.05777935 0.5357998 -0.2939886 -0.2785141 -0.20407125 0.8796982 -0.22798982 -0.45775884 0.30741566 -0.078175224 -0.09968898 0.37212673 -0.1120728
DDD -0.4356874 -0.1266593 -0.597654 0.053726755 -0.2878532 -0.1689353 0.63749605 -0.34893492 -0.21591154 0.09350536 0.318856 -0.29232392 0.5879721 -0.26741153 0.09924349 0.2795308 -0.29081953 0.28191674 -0.45329046 -0.42136076 -0.0066460073 -0.2226763 0.23726542 0.5745873 -0.31615084 0.0610876 -0.0525783 -0.3341243 0.061724734 0.39461938 -0.16615997 0.27832168 -0.41757682 -0.43042672 -0.3049047 0.12787275 -0.35012588 -0.32629108 -0.7255756 -0.18288513 0.19165955 -0.37982884 -0.47260812 -0.13139662 0.15870696 0.31790927 0.25360945 0.030623512 0.7423052 -0.41877508 0.5586604 -0.29093534 0.047631152 -0.29825518 -0.041355327 -0.1970288 -0.16821374 -0.7137008 -0.053382467 0.28506044 -0.14160249 0.26754108 -0.59720165 0.5941749 -0.35739166 -0.44730058 -0.21877483 -0.34647107 0.3135313 0.14805083 -0.06534229 -0.8152574 -0.16506177 -0.001307681 0.31942984 -0.10827617 -0.036420204 -0.11400729 -0.8276542 0.22766054 -0.45066363 0.14441684 -0.053356227 -0.45852518 0.10069731 -0.2682268 -0.15306847 0.2650747 0.40647048 -0.16450529 0.058592226 -0.34209597 0.42915565 -0.0076383897 0.054432936 0.59737533 -0.52671665 0.40928674 -0.55431443 0.22625332
; -0.23910533 -0.26612863 -0.693795 0.09460457 0.066611454 -0.2754283 0.1838448 -0.08264506 -0.12011942 0.46002057 -0.046031848 -0.7096996 0.48345408 -0.27768543 -0.09185601 -0.17933519 -0.107809134 0.11099378 -0.2100628 -0.54833424 0.27694643 -0.19757062 0.06289177 -0.028147396 -0.008949694 0.23494446 0.030873206 -0.18879084 -0.139957 0.19059493 0.13842782 0.0105924215 -0.26399156 -0.1085675 -0.265474 -0.10718854 -0.1675593 -0.6240456 -0.703867 -0.007300966 0.35235822 0.031944107 -0.4088589 0.06484578 0.1063122 -0.058795072 0.22672343 0.28941208 0.4035428 -0.23263474 0.032358658 -0.4410705 -0.21223721 -0.15617728 -0.15495399 -0.5625305 -0.25600585 -0.37661007 -0.06835728 0.1967483 -0.29516497 -0.118060045 0.03506895 0.36233315 -0.35426763 -0.38771963 -0.21878403 -0.16961433 0.3306515 0.24299923 -0.15659313 -0.63810766 -0.2581783 0.20949024 -0.044016916 -0.046627216 -0.057117485 -0.23659597 -0.1627064 0.11236448 0.094481036 0.26211777 -0.03532084 -0.014310824 -0.101228416 -0.3515744 0.08339269 0.31607294 0.19288619 -0.579093 -0.23619607 -0.25230685 0.62581563 -0.1217465 -0.15042323 0.45357522 -0.50014216 0.5778333 -0.26161665 0.24329598
by 0.33499804 -0.33338884 -0.55014706 0.09549816 0.10545077 -0.25026694 0.3077546 0.40900633 0.17752703 0.45207113 0.08221218 -0.4603385 -0.21969512 -0.06345025 -0.052594747 0.63609326 -0.30414674 -0.0712314 -0.32355514 -0.40407142 0.15645704 0.08390228 -0.025652133 -0.020788347 -0.19740881 0.2510394 0.25128502 -0.4477683 -0.15136728 0.11842154 0.25171664 0.102900885 -0.24087691 0.08800778 0.10421513 -0.27800545 0.32599762 -0.26625752 -0.17835821 0.2251231 -0.019110443 -0.11772638 -0.25137857 0.50033975 0.06320437 0.3208893 0.28650004 0.006148758 0.68124044 -0.028181482 -0.14801437 -0.650032 0.0018763962 0.04275508 0.029027456 0.14354196 -0.26355237 0.3252606 0.22883318 0.032381754 -0.014319976 -0.0026665141 0.1071593 0.10292629 -0.07330248 -0.5239155 -0.16161582 -0.05474945 -0.22596098 0.33968204 0.12021733 -0.5525021 -0.08861629 -0.10976576 -0.067811854 0.115038514 -0.049732935 -0.08062421 -0.255141 0.8169531 -0.2939889 0.11925291 -0.4201323 0.13793024 0.35359788 -0.28026915 -0.15708573 -0.031154377 0.21091759 0.13667172 0.3794852 0.08957135 0.501401 -0.038806614 0.025341332 0.15217356 -0.19921732 0.046872113 0.04303096 -0.1418196
be 0.08155174 -0.23337837 -0.5287107 -0.14602293 0.1752689 -0.29935798 0.2895745 0.0046533016 0.18773903 0.52582866 0.4595282 -0.22291364 -0.25461847 0.14598738 -0.13164592 0.34569648 -0.74732643 0.23503458 -0.35809678 -0.11533557 0.20338462 0.2216205 -0.38528347 0.23735319 0.21462457 0.2392285 0.10030566 0.048367545 -0.022746276 0.35091707 0.12772527 0.26738968 -0.5026753 0.09134409 0.016204523 -0.19460827 0.24064896 0.15845233 0.25597864 0.06427065 0.24128066 0.23755704 -0.13120964 0.50719815 -0.23555103 0.38500872 0.45146695 0.079423256 0.7219788 0.31366664 0.07016199 -0.46114206 0.12017179 -0.20196371 -0.30840346 0.4278591 -0.35285944 0.26379237 0.21327156 -0.029721234 -0.19891876 0.04566772 -0.112735145 -0.11167375 -0.1347364 -0.3113244 -0.29714477 -0.25825453 -0.1736668 0.4779493 -0.0054248413 -0.79257774 0.04489892 0.20419858 0.25458223 0.06344899 -0.11927916 0.06404571 -0.23257495 0.57177144 -0.29746413 0.5455694 -0.09694409 0.37952042 0.06692317 -0.32652584 -0.24984182 0.09313834 -0.003574976 -0.27803573 0.13561551 -0.21886657 0.121468365 0.10897565 -0.3330437 0.106837094 -0.55365336 0.06771797 0.089263335 -0.4443415
is 0.0517696 -0.31164756 -0.2837374 -0.023088928 0.075089395 -0.3108851 0.12901959 0.47302517 0.011462052 0.7381946 0.38105136 -0.34616265 -0.3437163 -0.022462178 -0.060507484 -0.24530755 -0.2817859 0.027924929 -0.3739612 -0.1971553 -0.08307347 0.31076568 -0.10210243 0.016784867 -0.095835 0.39963466 0.21360719 0.027157517 -0.16655281 0.44032076 0.24130477 0.08065688 -0.39944538 -0.1524817 -0.4229889 -0.3089121 0.100171685 0.14451072 0.12379731 -0.116983585 0.2159673 -0.08675826 -0.010997209 0.07246825 0.047091365 0.40478265 0.1980216 -0.18561745 0.5134451 0.1082738 -0.13575824 -0.41149485 0.0065855538 0.21112792 -0.19066362 0.22740693 -0.26313353 0.20725696 0.059282135 -0.2533499 -0.43947682 -0.17683437 0.18375963 0.00084123603 -0.2912036 -0.5489938 -0.32691956 0.023696192 -0.061607305 0.44757584 -0.30774716 -0.8838283 0.19645788 0.03495535 0.14673775 0.14659798 -0.11494132 -0.15863264 -0.3460122 0.71046793 -0.11884814 0.5210859 0.03073552 -0.0021998617 -0.19957906 -0.4397748 0.1943798 0.028837042 -0.24636546 0.03792377 0.16397607 -0.16802244 0.4518682 0.2885338 -0.4605514 0.26015338 -0.45929104 0.14298545 -0.021392168 0.003640525
that -0.0051543345 -0.07977962 -0.38170546 0.044081964 0.45663157 -0.14041647 0.26811573 0.22990128 0.11075153 0.46447718 0.20878021 -0.18282229 -0.46266466 0.006418719 0.14755769 0.33631143 -0.17198114 0.01000758 -0.3120207 -0.4090988 -0.08915083 -0.071906336 -0.2133452 0.254331 -0.37290218 0.28089586 0.05663582 -0.15162179 0.08136653 0.21498556 0.3961809 -0.15968673 0.029508917 -0.121123366 -0.06077293 -0.1983973 0.22563215 -0.15169942 -0.35466823 -0.023593115 0.09788389 0.23433936 -0.22434525 0.12354931 0.1409083 0.26145363 0.2466202 0.01946643 0.89093006 0.06595773 -0.22151029 -0.40603203 0.225282 0.08367674 -0.27954525 -0.26485276 -0.17100741 -0.098366335 0.23767935 0.3005298 -0.39330822 -0.020273741 0.1867944 0.10351342 0.12530957 -0.3779305 -0.1951765 0.031359624 0.0011561668 0.09353299 -0.004618523 -0.5819748 -0.07713106 -0.009908297 0.3559076 0.3905389 0.30178815 -0.019265296 -0.36184794 0.53825533 -0.08012647 0.2515404 -0.072932035 -0.20715636 -0.13191213 -0.31583646 -0.005958967 -0.17722435 0.32293466 0.035519153 0.15777989 -0.30262408 0.44165292 0.053104427 -0.24024059 0.48067468 -0.46487075 -0.069443755 -0.043927312 -0.26271033
: -0.7591158 -0.2646678 -0.36939433 0.26848724 0.022637937 -0.29115185 0.31209847 0.10685416 0.06106735 0.19291116 -0.25417697 -0.61348504 0.09071194 -0.11662105 0.28338388 0.45969152 -0.97118664 0.022864657 -0.7098984 -1.1024586 0.36222082 -0.0103784045 0.023812791 0.55467755 -0.30499178 0.38612592 0.5210898 -0.08406864 0.05226377 0.7304787 -0.07071265 0.21304916 0.15124896 -0.38780263 -0.32338032 -0.46740356 0.14779516 -0.43193093 -0.6416553 -0.2209526 -0.103300914 0.23761083 0.00406717 0.08486197 0.3381569 -0.053880353 0.03272635 0.2515561 0.65628237 0.087977655 0.53870887 -0.33841738 -0.06583009 -0.42429298 -0.13729373 -0.043142527 -0.3168302 0.0496805 -0.40265787 0.46314025 -0.5672852 0.22640167 -0.86921537 0.56512356 0.018949749 -0.27812028 -0.18551055 -0.50609607 -0.1486017 -0.38275957 -0.42808002 -0.8358451 0.50570655 -0.31010124 0.23037972 0.2854441 0.3050738 0.10863432 -1.3710846 0.6121138 -0.31291273 -0.13864248 0.22320347 -0.60743076 -0.0033931287 -0.32837018 0.08422371 -0.46779427 0.075002104 0.12024863 0.41664106 -0.08754491 0.0023431582 -0.12524827 0.04811188 -0.15391923 -0.46561414 0.25035775 -0.81479734 -0.5677656
as -0.10231737 -0.36741513 -0.02750869 -0.027230354 0.12374483 -0.27121675 0.6740038 0.046065204 0.26958698 0.35699368 0.068131536 -0.26940778 -0.35762435 -0.14978255 0.0064532105 0.5446262 -0.19927448 -0.005885767 -0.70960397 -0.2654345 0.04273091 0.022067327 -0.10119164 0.18465863 -0.20780498 -0.06437744 0.3856006 -0.04629777 -0.25635836 0.08971524 -0.009007241 0.19671102 0.034383595 -0.41520932 -0.13870047 -0.38856116 0.19194788 -0.19736929 -0.03685363 0.06405529 0.11855675 -0.23880252 -0.49236465 0.3624054 -0.27119943 0.3894169 0.3006692 0.024834476 0.43355805 -0.20373212 0.15336917 -0.47064462 -0.030875131 -0.05928766 -0.1931324 -0.08611602 -0.31415987 0.074961275 0.025993904 0.16721807 -0.30199924 -0.057689667 -0.37266865 0.1334207 0.16398545 -0.46502957 -0.19798769 0.024250377 -0.12570427 0.09707074 -0.409354 -0.72495353 0.20311704 0.40243983 -0.11309613 0.2619226 0.18081744 0.03562432 -0.7331871 0.3276506 0.15800719 0.4658815 -0.13978869 -0.28939202 -0.10767252 -0.047930557 0.1002206 -0.23326817 0.368928 -0.24573086 0.50456375 -0.3092314 0.38562006 0.2105261 -0.50970453 0.4976304 -0.32204735 -0.09808375 0.17026596 -0.4441004
on 0.26781717 0.01500565 -0.20496175 -0.19232132 0.25763237 -0.41967967 0.23681831 0.09721479 -0.10419253 0.63799244 0.08185733 -0.27157134 -0.49744895 -0.5462476 0.2628535 0.36394376 -0.51025283 -0.1440511 -0.1750475 -0.4420223 0.20232858 0.03559468 0.065051354 0.1393253 -0.1162232 0.37413037 0.44496277 -0.22889079 -0.024140848 -0.048461106 0.28822994 0.11089781 -0.15650024 -0.18926685 -0.02329232 -0.2267449 0.38135573 -0.47366732 -0.07448843 0.07993874 0.26278105 0.27542585 0.12790886 0.4218593 0.023784023 0.63395125 0.021298483 0.060134426 0.44823068 -0.32888424 -0.17713399 -0.28831494 -0.00059574866 0.42536137 -0.0075227814 -0.13577914 -0.07847265 -0.011400535 -0.045883726 -0.16251391 -0.35495323 0.037887394 0.2117479 0.062024463 0.0935998 0.047707487 -0.19489482 -0.12227777 0.093026884 0.5212127 0.15481551 -0.62529653 -0.2473007 -0.22620952 -0.16802202 0.18365742 0.020497918 -0.24700995 -0.6806382 0.37204185 -0.3009895 0.23702246 -0.06390398 0.15491672 0.10959759 -0.4101112 0.47508842 -0.22645669 0.42692128 -0.36876425 0.3271372 -0.115334295 0.126531 -0.32870868 -0.5250795 0.33099985 -0.5134506 -0.0036321215 -0.278186 -0.21681586
shall -0.12727328 0.20541455 0.22706454 -0.17223164 0.15769365 0.055152915 -0.26445636 -0.13578445 0.40045172 0.7749593 0.2182674 -0.19097798 -0.10247453 0.560271 -0.032805342 0.22946101 -0.7130844 -0.091198646 -0.4971745 -0.23055196 0.20677215 0.2215142 0.06000665 0.046785146 -0.33040932 0.17122996 0.7687436 0.14607157 0.4068098 0.07913576 0.12479269 -0.17316058 -0.5864975 0.13949428 -0.25539997 -0.08461023 0.2663545 0.34929514 0.13472196 0.045457836 0.19739948 -0.10994732 -0.4130355 0.28680924 0.14780109 0.52846295 -0.0013159096 0.15198529 0.36066186 0.071135774 0.04006001 -0.38583475 -0.16596062 -0.36228818 0.14488575 0.25843313 -0.012411487 0.1762455 -0.03115504 0.03687011 -0.26490697 -0.19778033 -0.013906126 0.36089092 0.0033145982 0.0014526075 -0.18183886 0.08263168 0.48131755 0.3459562 -0.26968533 -0.6098427 -0.21842082 -0.09215032 0.030579971 0.64241326 0.033383958 -0.12679587 0.19143386 0.6117493 0.33934084 0.04175937 -0.3277154 -0.2477919 -0.20611712 0.22119479 -0.016382696 -0.06382205 -0.21545483 0.42650768 0.23723537 0.004115885 0.3296102 -0.13712388 -0.5693156 0.52360946 0.01698613 -0.07698471 -0.11730479 0.27330515
this -0.0041774223 0.10113912 -0.1587927 -0.032289796 0.33191913 -0.18359724 0.39094767 0.22889698 0.12723812 0.7910242 0.313366 -0.12896034 -0.35423434 0.19428383 0.03967871 0.05442687 -0.38984802 0.24538006 -0.5366035 -0.11442761 -0.2841007 -0.106964976 0.13856243 0.24115573 -0.44406083 0.17390797 -0.072307386 0.15593247 0.097384214 0.28147715 0.052478623 -0.09413027 -0.19088933 -0.32304502 -0.27373448 -0.3187804 0.24245767 -0.060413685 -0.31071517 0.21971534 0.03386956 -0.034218576 -0.36922094 0.27254006 -0.022152305 0.468354 0.10321757 0.24250032 0.89700973 -0.008475801 0.04847802 -0.0085495515 -0.21628185 0.058946244 -0.27140337 -0.122190855 -0.13391657 0.011203867 -0.27067387 -0.08286495 -0.20097272 0.11207891 0.26993528 0.31708848 -0.041132636 -0.29703283 -0.5816952 0.015915345 -0.048848998 0.5211433 -0.06438116 -0.18940479 -0.022594392 -0.15908895 0.29428557 -0.11431283 0.065045014 -0.14217205 -0.29486164 0.60228515 -0.2470167 0.6585481 0.08403504 -0.3521516 0.14458783 -0.3858786 -0.07476398 -0.29289088 0.015139303 0.2681692 0.15334645 -0.35390565 0.57965386 -0.058679264 -0.16588992 0.33291084 -0.71937555 -0.24646816 0.23956916 -0.47649357
section 0.36641714 0.053059828 -0.15149057 -0.08882828 0.061096054 -0.06626718 -0.014551808 0.18335357 0.07791014 0.45431033 0.14141008 -0.32321268 -0.07944285 -0.2123108 0.6346583 0.28664413 -0.6448471 -0.17984049 -0.8477947 -0.43892828 -0.24879138 0.20276509 -0.049678154 0.4437972 -0.15399995 -0.12762521 0.28500557 0.110699944 0.5459592 -0.26055682 0.02821991 -0.16734722 -0.54646015 -0.103821635 -0.25129876 -0.4218064 0.24813004 -0.32948226 0.0044887997 0.3781062 -0.12139754 -0.61136514 -0.15184963 0.018778032 0.14995286 0.18880643 0.013633476 0.24419624 0.5219888 0.32296923 0.30764654 -0.18884683 -0.06476632 -0.2827845 0.19511297 -0.26616988 -0.0985201 0.081400655 -0.059018213 0.22437462 -0.041354094 -0.20264722 -0.16778275 0.13082214 -0.3146592 -0.4954846 0.21379696 -0.14271851 -0.22911449 0.098327026 -0.05345343 -0.04170957 -0.20700577 -0.17493066 0.19147956 0.19386235 -0.09225372 -0.7648252 -0.17054066 0.28514394 0.16508266 0.2734384 -0.0919235 -0.5551527 -0.1652844 -0.6436342 -0.2965928 -0.39093068 0.00811712 -0.04695044 0.43846387 -0.2284369 0.21440658 0.41433418 -0.13847224 0.1769673 -0.21471146 0.1502675 0.40398192 0.03302843
act 0.39027742 0.0041855904 -0.42211726 -0.147601 0.49330518 -0.15993132 0.030247882 -0.02090356 -0.19954938 0.12328827 0.4797392 -0.26829603 -0.37902883 -0.08205463 0.6622098 -0.23547144 -0.4320076 0.23193352 -0.67697906 -0.5986679 -0.43534675 0.009176713 -0.32669297 0.5262904 -0.23081365 -0.09884281 0.21444105 -0.46706146 0.20439614 0.022923337 -0.056680217 0.22400439 -0.13366881 -0.18911071 -0.23389849 -0.25705752 0.31666106 -0.49730027 0.2724675 0.04653822 -0.023982788 -0.317388 -0.2679084 0.2025813 0.066984646 -0.05009795 0.07504639 -0.05976921 0.3762279 0.1603969 0.15447538 -0.5015717 -0.27527788 0.13297318 0.13560171 -0.3115234 -0.27265012 0.17606337 0.14326309 0.33831137 0.22820795 -0.095705375 0.035594292 0.3627577 -0.27352473 -0.27545485 -0.3426501 -0.17190766 0.20938656 0.14607668 -0.09047558 -0.5810789 -0.13773161 -0.14865014 0.026548663 0.11079818 0.0694863 -0.7442696 -0.44281688 0.32579294 0.1714235 0.4303379 -0.026910435 -0.5197667 0.03310761 -0.61519974 -0.059557557 -0.282408 0.5454166 -0.27316737 0.31649306 -0.056284852 0.113544665 0.12360682 0.006686228 0.14118214 0.048354052 0.2910007 0.036157146 0.0069868104
with -0.11164669 -0.31506833 -0.30331805 -0.16353211 0.04471786 -0.21649599 0.6398744 0.20270716 0.06503509 0.22442855 0.14979577 -0.2308544 -0.24241945 -0.20743798 0.18805763 0.22936596 -0.5677711 0.11079175 -0.48808086 -0.5043038 -0.1868927 -0.24230975 -0.059427395 -0.25609642 -0.35958266 0.2698015 0.06787165 0.036812324 0.3392473 -0.018764405 0.008667178 0.25741568 -0.23417005 0.12872308 -0.0022355327 -0.31269693 0.4206875 -0.09250734 -0.21160267 0.16091396 0.4716846 0.11501554 -0.30865487 0.17745805 0.17651574 0.21070683 0.3579145 0.34238937 0.68189305 0.052677974 -0.44940707 -0.010824701 -0.26369715 0.2481002 -0.11988211 -0.14269963 -0.10766271 0.032907397 0.04440247 -0.16779839 0.022390792 -0.035694208 0.03597721 -0.027469076 0.15880956 -0.5269765 -0.45303145 0.059796423 -0.10512089 0.32045346 0.246223 -0.29340178 -0.34302467 0.15382428 -0.08649785 0.34910834 -0.11206047 -0.3518262 -0.1995737 0.95487124 -0.12264984 0.31476024 -0.19426382 -0.0054143625 -0.17393814 0.17315307 0.5962473 0.021226194 0.22151233 0.25322968 0.23898175 0.028399173 0.6395496 0.30604914 -0.37470964 0.309199 -0.1805249 -0.050536357 -0.38154128 -0.21988633
under 0.2088633 0.04157194 -0.18767859 -0.14478731 0.12183405 -0.21200496 -0.2080363 0.049773816 0.26833826 0.3890184 0.28444144 -0.4358076 -0.2184609 -0.31744486 0.083246514 0.16156085 -0.7913985 -0.07192553 -0.55461085 -0.53264356 0.008226083 -0.22753836 -0.055464253 0.26755732 0.017206002 0.06257781 0.0080797775 -0.5194917 0.3478862 -0.15520246 0.43043846 -0.27165258 -0.2891268 -0.12454872 -0.053124472 -0.2715547 0.39773846 -0.2767712 0.065169096 0.09668881 -0.08930929 0.02924999 -0.42091846 0.26561958 0.09007271 0.16574398 0.09299949 -0.0010052541 0.59924304 0.33879894 0.02447152 -0.49967948 -0.08571203 -0.18132119 -0.52102214 0.0006017298 -0.29483002 -0.09301455 -0.031980474 -0.30551735 -0.24908482 -0.113024496 0.20411175 0.2274112 -0.02896885 -0.57000744 -0.0035433224 -0.17235892 0.006165078 0.36056444 -0.26897383 -0.3905381 -0.20292279 -0.05840198 0.12132805 0.23401587 -0.094872795 -0.12695634 -0.58282787 0.5858744 0.17386748 0.47436327 0.015234609 -0.20518227 -0.054510538 -0.4833683 -0.025617467 -0.26173595 0.43437904 -0.10838542 0.2600275 -0.058995344 0.2360696 -0.22942519 -0.22362871 0.1478761 -0.4646738 0.3415506 -0.30931628 -0.16138342
any 0.1941551 0.028256197 -0.12769008 -0.07369418 0.36105785 0.07149485 0.1393626 0.13774522 -0.1054191 0.6688709 0.39939615 -0.2696611 0.012846037 0.11133645 -0.16973814 0.15030906 -0.5002707 0.13694313 -0.4496544 0.20552465 -0.2554011 -0.03470584 -0.30111977 0.3534456 -0.2040116 0.11647572 0.33242697 -0.030567365 -0.10625792 0.4196126 0.25206086 0.008083434 -0.14457092 -0.13409951 0.079186 -0.25924084 0.32976827 -0.07301052 0.030003164 0.13585792 0.25667304 -0.26535228 -0.13618127 0.35873547 0.24457504 0.038398415 0.08253724 -0.06721279 0.38391528 0.2794181 -0.15892006 -0.19832322 -0.22516514 -0.043245964 0.08312295 -0.2635855 -0.0063891136 0.35781673 -0.032923583 -0.03564157 -0.13412033 -0.031786524 -0.045984715 0.03956668 0.097597614 -0.0867673 -0.44775712 -0.11269992 0.25441292 0.7600322 0.0021208173 -0.5812363 0.03427305 -0.1604089 0.00067614723 0.29302016 0.22402927 -0.23927264 -0.32834587 0.6116266 -0.15589774 0.3639697 -0.26600045 -0.11166006 -0.10113693 -0.16961521 0.03241737 -0.2511085 -0.13983612 0.22651275 0.07760781 -0.23221244 0.3097427 -0.038150053 -0.38061473 0.47709194 -0.66610956 -0.3369773 0.02882753 -0.39757168
b 0.28721553 0.040941298 -0.4613565 0.14282241 0.12762061 -0.0712896 0.04766429 0.015724014 -0.07358263 0.3585316 0.12329576 0.021660652 0.0679224 -0.3126464 0.3929001 0.08596939 -0.8050706 0.04859236 -0.46341476 -0.45559323 -0.2038072 -0.13484693 0.046612106 0.15115649 -0.33934528 -0.060683906 0.3725239 0.08414202 -0.18492207 -0.019560631 0.37769198 -0.22045816 -0.32366604 -0.35090178 0.17708407 -0.16199632 0.43046078 -0.33430225 -0.46025026 0.19931147 -0.34448388 -0.46886948 -0.5148771 0.21474202 0.25970277 0.006598259 0.12470181 0.50912994 0.80093735 0.073405266 0.09142914 -0.61376745 -0.2775887 -0.009454081 -0.24344264 -0.41124934 -0.2617386 0.043053363 -0.04953827 0.18269476 -0.062721476 0.047131013 -0.41574147 0.30297095 -0.25188345 -0.66756815 -0.098721996 -0.017766839 -0.18022114 0.07867444 -0.23787174 -0.3423756 0.068820834 -0.16076344 0.3156517 -0.024011394 -0.14876495 -0.378169 -0.080332376 0.5095224 0.013091362 0.0955521 -0.1493049 -0.24930172 -0.025638444 -0.717887 0.03657149 -0.0032315082 -0.10555384 -0.13700666 0.2902666 -0.42936575 0.6469452 -0.09581326 -0.21806091 0.12868787 -0.48598877 0.022447238 0.16936044 0.39986765
an 0.20453832 0.11387076 -0.24938655 0.12708844 0.11096085 0.059094183 0.25175747 0.36273727 -0.081153356 0.6230371 0.1943242 -0.25007078 -0.18805587 -0.12124829 0.03428328 0.24083704 -0.6936492 0.19437985 -0.60220915 -0.28621006 -0.53864264 0.09440798 -0.29740727 0.36178267 0.22803496 0.15785724 0.3277065 -0.46779403 -0.17245668 0.37489852 0.40090087 0.083726816 -0.109921195 -0.54239285 -0.16827652 0.011292484 0.35995018 -0.19868375 0.29432413 -0.100462295 0.5957842 -0.06355385 -0.3857912 -0.14524202 -0.018520074 0.26213783 0.30580595 -0.17855106 0.5136121 0.036901407 0.08746941 -0.06776598 -0.4351946 -0.057236932 -0.009280679 -0.09117806 0.004050029 0.1332626 0.03752605 0.015133465 -0.18604964 -0.12049644 0.2120735 0.01609803 0.14844273 -0.25992382 -0.28561828 0.2682092 0.055117875 0.7626606 -0.12631324 -0.39754984 0.27583003 -0.13776578 -0.076133564 0.065491654 0.16054204 0.20923477 -0.46389067 0.48052865 -0.26875418 0.39182582 -0.10833362 0.13277535 -0.17208363 -0.29448047 0.009021255 -0.059080273 -0.18180194 0.3394929 0.19801918 -0.025402335 0.57422286 0.042467162 -0.2470357 0.35251635 -0.6810615 -0.45155606 0.09824199 -0.1228303
not 0.013009546 -0.023778796 -0.53269833 -0.1346846 0.4836712 0.069829606 0.014530174 0.09900482 0.051969647 0.31628388 0.5665678 -0.43797547 -0.20436522 0.14752746 0.25939813 0.4229634 -0.4963511 0.25363606 -0.39338997 -0.36011922 -0.041181456 0.16721492 -0.39592507 0.24205256 -0.32448804 0.35041323 0.044493556 -0.22502626 0.14704853 0.115498684 0.2817918 -0.09611241 -0.26681086 -0.08306521 0.05820222 -0.03440549 0.22742769 -0.0652324 -0.08059699 0.4212267 0.08267481 0.09842199 -0.11762295 0.145935 -0.17655583 0.010121863 0.12786378 0.023322213 0.9860262 0.034174714 0.085396945 -0.2114065 0.028734706 0.05955065 -0.21575627 -0.119889036 -0.21998435 0.28288138 0.10549263 0.08599841 -0.42733458 0.29220423 0.10684982 -0.09189216 0.01599331 -0.10816715 -0.22898869 0.07784148 -0.039831214 0.39686748 -0.0726098 -0.6534994 0.23455192 -0.15585203 0.031228662 0.16137224 0.26403338 -0.042962357 -0.422324 0.5635465 -0.11294148 0.5999416 -0.11038197 -0.26423666 -0.32947755 0.034810863 0.12575527 -0.02131203 0.24525705 -0.1616247 0.41594225 -0.22858788 0.31325963 0.11629812 -0.547522 0.369289 -0.27321798 -0.09355907 -0.29213896 -0.29587322
'' -0.9435134 0.029111642 -0.17352685 -0.17993271 -0.027085591 0.64109963 -0.053785875 -0.029053545 0.2727145 0.31291202 -0.10126951 0.51105446 0.6627304 -0.34669346 0.4779372 0.14265382 -0.6114672 0.33259702 0.23548011 0.37142426 0.11239063 -0.50156724 -0.20902167 0.79643804 0.19442348 -0.042315885 0.021369597 0.26897356 0.21190406 -0.38373977 -0.18877877 -0.0055932403 -0.5364405 -0.035325922 -0.82139105 0.019572157 -0.5130745 -0.03146189 0.17478915 0.15654872 0.41927758 -0.11966004 0.11436812 0.4630117 -0.43855178 -0.23117507 0.120496474 -0.047140654 0.25044164 -0.2278092 0.04789068 -0.33902633 0.19142427 -0.19121173 0.12744908 0.09147151 -0.32134086 0.022643939 -0.56616366 0.5183837 0.34610224 0.27650827 0.08997285 0.17991702 -0.500243 -0.0361149 0.6451284 -0.0059610168 -0.48100075 -0.03990931 -0.6206084 -0.4727321 -0.008478616 0.05416501 -0.23152198 -0.26345104 0.32980758 -0.1988568 -0.4747489 0.47483343 0.051890668 -0.40606794 0.23309256 -0.19061756 -0.3633565 0.0041343058 -0.0627615 1.0163287 -0.034057226 0.0038160046 -0.01959365 -0.5287572 0.2819436 -0.3159058 0.14882396 0.06592709 0.42259887 -0.19848876 -0.13831325 0.17637424
no 0.34450328 -0.36873236 0.05537594 -0.08350469 0.13636976 -0.099943355 -0.25175548 -0.045273438 -0.5236101 0.82935625 0.17694485 -0.73544824 -0.06646136 -0.3244146 -0.092661515 0.35573235 -0.24209374 0.35379452 -0.37046272 -0.21268201 -0.3871277 -0.059294205 -0.49768192 0.17258044 -0.7731935 -0.3194084 0.13901304 -0.1273453 0.05508913 0.5370683 0.14957409 -0.1802698 -0.069132514 -0.91211414 0.31446788 -0.3192282 0.07479229 -0.47801164 -0.456256 -0.00839833 -0.0843286 -0.21584013 -0.58853513 0.7029936 0.081545286 -0.01045263 0.2640751 -0.32237956 0.7046203 0.11143975 0.11309523 -0.057928808 -0.18960391 -0.014788645 0.21772206 -0.60805744 0.26536107 0.2985696 -0.046100102 -0.077349596 -0.5305359 0.4370107 0.10111046 0.6461497 -0.24730536 -0.17524707 -0.13722347 -0.46982405 -0.004398967 0.39382112 -0.37548316 -0.1963886 0.40944767 -0.09862839 0.23584814 -0.13424443 0.13438341 0.19586861 -0.75791204 0.6882245 -0.4701159 0.91340566 0.33088097 0.28337458 -0.15393531 -0.24660395 0.6491063 -0.19754031 0.58518124 -0.23272492 0.22287498 -0.04661378 0.4026546 -0.113380715 -0.6457168 0.3996915 -0.7504438 0.110131346 0.22091702 0.045868788
which 0.112160586 -0.080532365 -0.2879495 0.13520221 0.53471065 -0.28575695 0.38546914 0.029203895 0.025388973 0.429977 0.14213954 -0.16638966 -0.4405561 -0.1851065 0.17503168 0.36838007 -0.31288522 0.050887678 -0.2996543 -0.35793892 -0.15502122 0.1048018 -0.2318202 0.16638058 -0.2903787 0.13795637 -0.0740412 -0.17966838 0.0061863693 0.22315232 0.06327383 -0.11412668 -0.0048822146 -0.21191923 0.06494266 -0.17826146 0.29260984 -0.34575656 -0.22320803 0.11394681 0.30231026 -0.13834675 -0.11137397 0.25001422 -0.09400173 0.17407362 0.22379392 0.2748737 0.87176204 0.26625657 0.077960536 -0.3286759 -0.040438708 0.15525737 -0.17748949 -0.048240267 -0.20253545 -0.12132408 0.36554664 0.3085307 -0.25132725 -0.03792982 -0.039754294 0.21656053 0.14483075 -0.114205 -0.097362235 -0.0077255485 0.27194446 0.30032486 -0.15432729 -0.3251085 -0.25913438 -0.26793104 0.22798564 0.22703542 0.08230035 -0.13993856 -0.19327769 0.5155393 0.0058286143 0.57070625 -0.3862409 -0.14372867 -0.31211957 -0.34167287 -0.06270044 -0.40732035 0.28208426 0.06737542 0.31347728 -0.08929481 0.45459753 -0.08805038 -0.091744855 0.39913633 -0.47026065 -0.027868027 -0.01993457 -0.29773778
regulation 0.4148937 -0.45857593 -0.29901782 -0.18597645 0.26536793 0.026746865 0.50939924 0.22343709 0.0027156544 0.5141156 0.6981903 -0.09610394 0.15144587 0.13769446 0.18996297 -0.11483808 -0.17162779 0.07153091 -0.43691188 -0.3587765 -0.3223989 0.12190717 -0.307639 0.5111352 0.04954662 0.056663822 0.07721941 -0.52740216 -0.06005306 0.114398174 -0.0710066 0.31083155 -0.49067098 0.36717182 -0.43994775 -0.24742128 -0.12904271 -0.39239043 0.13607572 -0.04552464 0.19662493 -0.2841072 -0.11355605 0.4271349 -0.27105048 0.24012649 -0.10274742 0.17926715 0.35936722 0.1908007 -0.49264356 -0.01999717 -0.07379285 0.08914602 -0.027782656 -0.46702036 -0.6458227 0.217039 0.3814056 0.07105578 -0.33276504 -0.37608 0.029740889 -0.2704525 -0.35297754 -0.54751617 0.032183122 0.24455298 0.14243978 0.11823859 -0.12493858 -0.105693966 -0.28209078 -0.10203925 -0.49137068 0.44104648 0.06101709 -0.09028566 -0.32320392 0.59945905 0.010749203 0.2086215 -0.0040440015 -0.34282494 -0.10400642 -0.62026197 -0.25447527 0.5769618 0.11697225 -0.33934805 0.5587436 -0.36271745 -0.063062474 0.34386143 -0.28554928 0.46849513 -0.1590685 -0.14063409 0.043613493 0.061450522
“ 0.13328068 0.08935564 -0.45888186 -0.18361823 0.2790251 -0.08387515 0.41255522 0.085302085 -0.077740334 0.41316843 0.15213998 -0.17826067 -0.2828875 -0.17654803 -0.03199893 0.19744037 -0.33812717 0.07587414 -0.42316267 -0.27872136 -0.28595698 0.09269241 -0.5702161 0.26870733 -0.24786009 0.2064495 0.20562059 0.013887944 -0.13730896 -0.099782564 0.4236012 0.046483736 -0.101904616 -0.2579667 -0.2698971 -0.026369339 0.188459 -0.12780042 -0.27633634 0.048714083 0.2730386 -0.26065096 0.002239479 0.027556688 0.06186095 0.22185333 0.34761247 -0.073469155 0.50837356 0.04337413 -0.08574493 -0.521907 0.3515921 -0.105353296 -0.038504567 -0.18075922 -0.47666612 0.03397316 -0.04054389 0.016946059 -0.34614316 -0.0820414 -0.06636474 -0.081244 -0.15886648 -0.2613438 -0.1336961 -0.10014056 -0.0451776 0.23579253 -0.048434112 -0.54099 -0.06004118 -0.02285203 0.26571307 0.32452482 0.2743593 -0.20043273 -0.28162414 0.39614832 -0.15811956 0.35907888 -0.0675128 -0.23160538 -0.3444031 -0.18484831 0.21797265 -0.18182667 0.073567696 0.14972426 0.3291041 -0.09919682 0.21220282 -0.007916431 -0.16204675 0.40327698 -0.31473473 -0.08168477 -0.015106877 0.007667482
” 0.024626281 -0.09513677 -0.56499416 -0.069673754 0.011919882 -0.14822045 0.40767437 0.12651677 -0.085495144 0.3534703 0.2174613 -0.33554268 -0.008491086 -0.17518714 -0.16750643 0.071245946 -0.23094626 0.09548449 -0.4225133 -0.3371929 0.025767008 -0.26718995 -0.5059648 0.277098 -0.18645746 0.013945576 0.0803878 0.0050773295 -0.012988576 0.35201472 0.072019 0.10689881 -0.35286802 -0.07286502 -0.24446377 -0.12983033 0.24747269 -0.21770473 0.04029835 0.12212107 0.16327482 -0.12110852 -0.2603664 0.11080358 -0.019259294 -0.25844413 0.29293355 0.017207634 0.59625536 0.12980907 -0.40728116 -0.4174552 0.18308479 0.032200623 -0.10686958 -0.3073739 -0.2962897 -0.066524 -0.15217191 0.06675773 -0.1869261 0.04513296 -0.23539907 0.30682707 -0.23420937 -0.20778912 -0.17192361 -0.089846484 0.1295158 0.3279133 -0.39402375 -0.64751625 -0.17830373 0.016070202 -0.12381451 -0.10061872 -0.0177321 -0.22449698 -0.44889358 0.4350301 -0.06983021 0.39971265 -0.0981223 -0.1652771 -0.1865676 -0.26865056 -0.06575599 0.03325185 0.14255877 0.020711737 0.23423861 -0.09116616 0.24575604 -0.08528291 -0.15930633 0.49518788 -0.4120841 -0.020801112 -0.51968026 -0.12728415
— 0.083893865 0.5524702 -0.3107541 0.11777965 0.0076520178 -0.39285305 -0.09283961 0.24741037 -0.14937884 0.30227903 0.07559986 -0.19576511 -0.07454016 -0.20726357 0.27131957 0.16493465 -0.69350404 0.18142328 -0.45985273 -0.10949912 -0.064687386 0.051571198 0.08513744 0.12006688 -0.16336253 -0.030413873 0.41006416 0.055412307 0.42509186 0.22306162 0.37168846 -0.114165716 -0.31415322 -0.43207237 0.13100378 -0.14950371 0.26355058 -0.3532472 0.08749016 0.025652012 -0.12759161 -0.37455824 -0.12484163 0.4155578 0.1344681 0.32436588 0.16126709 0.49288756 0.7469528 -0.30843446 -0.12748939 -0.580414 0.1930202 -0.07452008 0.06307947 -0.255192 -0.013688956 0.19252655 0.07955511 -0.20919803 -0.06824394 0.005520474 -0.17504299 0.23520213 -0.3862623 -0.016743619 -0.16780916 -0.03231491 -0.040483527 0.20918839 -0.11470872 -0.60213876 -0.21895759 0.16228166 0.3195041 0.07055196 -0.17909658 -0.18620591 -0.50709337 0.50762695 -0.34868127 -0.15809341 -0.013884285 -0.15098466 -0.13604549 -0.3566092 0.73725426 -0.23876145 0.13919982 -0.20123038 0.36294287 -0.111992255 0.462765 -0.13008867 -0.17493156 0.19824998 -0.50717705 0.026472202 0.42283803 -0.05637858
c 0.17708506 -0.5875361 -0.42231208 0.38347664 -0.3946406 -0.34946772 0.31343755 -0.0811176 0.14799078 0.22691566 0.1769525 -0.25558412 0.23277314 -0.34501377 0.5207761 0.006247313 -0.66455835 0.07714929 -0.53593874 -0.5298435 -0.058126032 -0.54687417 -0.06416608 0.23085596 -0.6229787 0.11692932 0.264382 -0.257096 -0.27376285 -0.4704831 -0.07014493 -0.17997086 -0.46058875 -0.3914793 0.33225915 -0.15704834 0.6473766 -0.5065098 -0.9565998 0.17931283 -0.53648263 -0.6064865 -0.32698488 0.43233222 -0.36745018 -0.06934646 0.28543362 0.042053554 0.7044734 0.15408732 0.42142013 -0.56017524 -0.5316216 -0.20154819 -0.41323197 -0.066416234 -0.026804533 -0.37195578 -0.2809394 0.32411134 -0.2944695 0.31938526 -0.4299609 0.37377807 -0.41083792 -0.3765575 -0.29632583 -0.07282747 -0.1223068 -0.123151295 -0.3181573 -0.45088577 0.23511362 -0.55336076 -0.013917682 -0.16247316 -0.19025408 -0.3418239 -0.485273 0.894453 -0.28861278 0.5078505 0.05639664 -0.126602 0.3111274 -0.85076714 -0.2927776 -0.03679373 0.09120628 -0.36276102 0.28421012 0.04006047 0.63153225 0.15420908 -0.38916537 0.16204987 0.20795913 0.044069607 0.331653 0.69320965
article 0.40607572 0.07248565 -0.40601534 -0.37262684 0.44453204 -0.2912155 -0.40242368 -0.047345832 0.11493536 0.5495748 0.22958499 -0.14069337 -0.1352701 -0.042962607 0.06465004 -0.033988327 -0.4487739 -0.15713555 -0.38901827 -0.18379962 -0.7248217 0.058701586 -0.038321905 0.3426342 0.018010909 0.0005695562 -0.15966178 0.4089529 0.51959217 -0.20463446 0.21472196 -0.12870947 -0.15036538 0.111216314 -0.45524266 -0.4560488 0.43884733 -0.8359837 0.10233584 0.69729894 -0.12959486 -0.062551364 -0.5074859 0.38638917 0.039521057 0.43498257 0.18613309 0.22477686 0.68190795 -0.18090032 0.62308544 -0.22910452 0.3305434 -0.24970031 0.42163882 -0.26450503 -0.22483891 -0.053202167 0.04160416 -0.09861061 -0.13382816 0.114519864 0.006225899 0.2037906 -0.1588461 -0.9626876 0.25707093 -0.20924404 -0.12537116 0.018147962 -0.22277096 0.14074552 -0.07119413 -0.13817471 -0.13479263 0.38654026 -0.022338243 -0.54689 -0.19142388 0.39622948 0.0016159139 0.022729658 -0.2014933 -0.094960704 -0.04248771 -0.17904072 0.08633919 -0.13621534 -0.46410605 -0.34522274 0.7478344 -0.2338898 0.24651368 -0.008613219 -0.36219263 0.40056586 -0.029725881 -0.385368 0.22864963 -0.07298688
may 0.052447762 0.10407405 -0.12819095 0.008574484 0.3087673 -0.3256262 -0.051946916 0.096693374 0.030183237 0.592948 0.12795125 -0.43053678 -0.015129708 0.123569764 -0.026799386 0.295529 -0.4603108 0.06840093 -0.34816667 -0.3478928 0.24404812 -0.00083242694 -0.028804757 0.19729476 -0.5067661 0.16570869 0.72406673 -0.29294226 -0.0820608 0.016418135 0.20563976 0.027369747 -0.18931551 -0.16653691 -0.40052018 -0.116539806 0.100719444 -0.019950658 0.14539357 -0.060005717 0.02326114 0.1110879 -0.30827436 0.31697983 0.07139398 0.17470644 0.08346083 -0.05572616 0.35786554 0.18572648 0.14105809 -0.5188746 -0.02884516 0.010407296 0.10279465 0.20477983 -0.16071707 0.2525668 0.33185828 -0.00610743 -0.53932476 0.18586491 0.23403347 -0.07605503 -0.16342615 0.021107743 -0.51830643 -0.009440565 0.579579 0.49466255 -0.4223836 -0.9544864 0.06617326 -0.3513675 0.08566138 0.33958375 0.07535043 0.029438358 -0.22471985 0.39667132 0.0238848 0.38780472 -0.16956598 -0.36920834 -0.18706113 -0.026630305 0.3096259 -0.07409856 0.16511056 -0.17099097 0.26446334 -0.08014003 0.48200008 0.01020874 -0.47939837 0.48745564 -0.19721437 -0.15183239 -0.28098342 0.008896557
| -0.29519328 0.06623554 -0.54767364 0.080743216 -0.71214604 -0.29103783 -0.8663035 0.5808573 0.2871516 -0.031712648 0.47622997 0.2631037 -0.44687152 -0.27144417 0.065684736 0.027875235 -0.3667212 -0.35296658 0.42438582 1.0767148 0.4573515 -0.71950984 0.0599929 0.14471415 -0.534088 -0.23935778 0.01998025 0.35080612 -0.024193443 1.0833228 0.06925312 -0.3104165 -0.043321084 0.037048977 0.111966155 -0.26940477 -1.0993327 -0.34121814 -0.041507743 -0.25120464 0.18981937 -0.62746847 0.11934582 -0.87351525 0.25873736 0.41756794 -0.838422 0.30731297 0.26260763 -0.29041463 -0.19888481 -0.21720387 0.0019240263 -0.37553898 -0.66697186 0.30730677 -0.3846566 -0.028667986 -0.23696245 -0.5461207 -0.18634288 0.3262476 -0.496777 -0.30573484 -0.30203542 0.16152406 -0.24318652 0.6759714 0.2478749 0.0497918 0.007201528 -0.46352622 -0.31774446 0.2525957 0.27518508 0.3964799 0.29305574 -0.24597177 -0.527114 0.031455114 0.7642589 -0.036847435 0.32609096 0.46182635 0.20253605 0.042339526 0.5670069 0.39625096 0.16388126 -0.092874594 0.117291324 -0.22876942 0.1873369 0.4552818 -0.030888498 -0.2808541 -0.2884393 0.2191082 -0.37198046 -0.4597822
`` -1.0402186 -0.18690115 -0.12817939 0.19915818 0.31756067 0.21863157 0.021013586 -0.14457186 -0.36415777 0.7275168 -0.17969476 0.4636161 1.1968722 -0.54613096 0.8134075 -0.5414554 -0.7780601 -0.31303194 -0.6901799 0.42937103 0.1400992 -0.91460204 -0.0797204 0.6148141 0.100727156 -0.21464764 -0.11509169 0.53529954 0.49239808 0.17737348 -0.06908451 -0.091840595 -0.36266455 0.25798488 -0.61397636 0.2689708 -1.0672032 -0.6372409 -0.37695098 -0.69074124 -0.10340893 -0.3677083 -0.083314806 0.22924812 -0.42009258 -0.6232931 0.222912 -0.5099675 0.54091173 0.019067185 -0.06050703 0.2586071 0.42109784 -0.9382905 0.25449997 0.17604472 -0.690168 0.7419683 -0.33090892 0.44330782 0.19808652 -0.35490954 -0.34418306 -0.48792258 0.10750812 0.13611789 0.14593117 -0.73007035 -0.041551176 -0.43568763 -0.23943324 -1.0305321 0.35020307 -0.26234472 -0.07901613 -0.0037419877 -0.04442421 0.046044163 -0.8921046 0.1250751 0.39513525 0.32482547 -0.020612849 -0.1681744 -0.82123405 0.058051217 -0.4583034 0.1672749 -0.34468475 0.14235848 0.05107205 -0.2570388 -0.0935407 0.123141155 0.5148439 0.36246443 0.2378975 -0.41715267 -0.50025535 0.3883284
paragraph 0.37278867 0.13051453 -0.10995329 0.15475842 0.24363247 0.39089322 0.13195623 0.05130645 0.16895905 0.73398554 0.64525664 -0.321971 0.074824184 0.2718695 0.3977901 0.14641853 -0.7361229 -0.17514956 -0.50837445 -0.059838623 -0.05817368 0.2998376 0.115621276 0.31671056 0.19023123 -0.1923989 0.2597221 0.2526683 0.4680741 -0.22998695 -0.58466214 -0.100896776 -0.37398702 0.0018809068 0.12816378 -0.2788708 0.24741155 -0.38745236 -0.08438747 0.41124696 -0.30930272 -0.24616675 0.1040813 -0.022592925 0.10777798 0.3755346 0.009143186 -0.03800878 0.60940385 0.34078577 0.32909667 -0.03665769 0.3793251 -0.56021786 0.8163589 0.48504817 -0.25671816 -0.034843277 -0.2898226 -0.086027555 0.16235007 0.003935656 -0.490993 -0.004395889 -0.08273194 -0.28018892 0.38298583 -0.16285422 -0.5054793 -0.06968576 -0.29844916 0.38036874 -0.23330453 -0.11824249 -0.15377507 0.4947981 -0.28136924 -0.834803 0.17117397 0.0830957 -0.02892974 -0.33158934 -0.1628608 -0.1577683 -0.29310676 -0.24474768 -0.41249153 -0.69016606 -0.541267 0.31625926 0.20427912 -0.19110614 0.31831437 0.44512466 -0.41693938 0.2259653 -0.17334762 -0.28890303 0.22368959 -0.027572658
other 0.21514444 0.1104898 -0.34618863 0.0936633 0.14258055 -0.18224764 0.14368019 0.21776514 -0.012605142 0.4171584 0.25306192 -0.21185452 0.033787407 -0.13106053 -0.17313914 0.37221074 0.025791079 0.37706482 -0.38296723 -0.30944282 -0.13469298 0.0037725372 -0.42531824 0.009206916 -0.50990224 0.29314741 -0.0762211 0.3189579 0.09239139 0.13443963 0.123602755 -0.062823564 -0.22708116 0.0129505135 -0.12548423 -0.41639644 0.32634905 -0.23197623 -0.050318033 0.13988934 0.46972305 -0.06039852 -0.08157933 0.5209593 0.006855956 0.052353147 0.03133492 0.14878425 0.43271825 0.1968995 -0.09057914 -0.16449435 0.021049328 0.019684756 0.25961894 -0.049975924 -0.21019505 0.14723088 0.047069184 0.14678589 -0.2524098 0.026607076 -0.37802878 0.107408196 -0.06441465 -0.10953021 -0.19634867 -0.39500952 0.38717797 0.6812625 -0.14572667 -0.68204 -0.32122558 -0.2999869 -0.09816399 0.6225268 0.119408205 -0.30514026 -0.21548302 0.54681516 -0.20020059 0.3934833 -0.4069407 0.07251489 0.0016084118 -0.22940175 0.22539923 -0.124240525 0.42891982 -0.33402988 0.060475774 0.039553102 0.42648813 -0.03455881 -0.08278441 0.23727222 -0.3528725 -0.2839341 0.03672367 -0.4209496
] 0.1091852 0.043917872 -0.3302314 -0.15661883 0.6747187 0.10449389 0.6859016 -0.23257929 0.03884416 0.41694233 0.33767325 -0.18610196 -0.18419322 -0.11692422 0.010357941 0.22155263 -0.78964496 -0.26906526 -0.327501 -0.34650725 -0.2568873 0.1780156 -0.3177399 0.40885815 -0.31370217 0.037316367 0.43994913 -0.1689176 -0.22523984 0.039193787 0.35820848 0.16024044 -0.04138267 -0.18323857 -0.10733232 -0.13194326 0.20948437 -0.10103269 -0.6444025 -0.10218815 0.23405991 -0.4311891 0.343427 -0.097497575 -0.11586073 0.14745343 0.53512555 -0.14527458 0.36842936 0.21735501 0.042317767 -0.7776666 0.09572221 -0.32777008 -0.22458372 -0.38434285 -0.6795243 0.29558033 -0.22657573 -0.2036883 -0.56579053 0.117611006 -0.6069804 0.30803955 -0.26197416 -0.03256516 -0.15697427 -0.26783788 -0.06717057 0.21177135 0.12745185 -0.79214 0.10762693 0.052933853 0.15493628 0.60279757 0.3383914 0.18167087 -0.40023857 0.38801992 -0.27448228 0.5378196 -0.082769066 -0.12655124 -0.73110723 -0.113336526 -0.011153495 -0.15066431 0.15173747 0.34940687 0.19384873 0.25755265 -0.065964006 -0.21174596 0.06486233 0.74122816 -0.26795167 0.12696658 -0.8711353 -0.08802757
[ 0.0060400036 0.2426067 -0.39576873 -0.020889398 0.6741092 0.36373124 0.6544572 0.1498805 0.26735392 0.41084564 0.20920415 0.01022691 0.011596279 -0.049532436 0.28935167 0.2525735 -0.4934661 -0.23272921 -0.6308931 -0.3809472 -0.27644923 0.024801798 -0.2359731 0.1882656 -0.19763821 -0.21171664 0.5363143 -0.11151441 0.17364836 0.10187517 0.36613277 -0.05442721 0.0035250094 -0.29754096 0.24368082 -0.07825228 0.0049775657 -0.028669013 -0.5041459 0.016957492 0.38126683 -0.46320713 0.38343576 -0.069126956 0.14046939 0.14463677 0.5678865 0.34441975 0.48896453 0.024453439 -0.05871197 -0.72832537 -0.1552761 -0.4764371 0.14485028 -0.07857756 -0.56961155 0.24345683 -0.34772885 -0.08998143 -0.2603024 0.028104452 -0.31080425 0.5010251 -0.0014250182 0.003946606 -0.07208494 -0.052395258 0.25100198 0.056220233 -0.56300056 -0.9044782 0.23227262 0.29244927 0.3022894 0.29751942 0.23880172 0.07104532 -0.3194344 0.6448883 -0.43840134 0.5998471 0.17493935 -0.0154739935 -0.6761986 -0.1006016 -0.069584586 -0.21253715 0.17728531 0.44166073 0.33246362 -0.12925558 0.020670308 -0.068011954 -0.15794441 0.5532862 -0.62455654 -0.019659625 -0.9532011 0.038545102
s 0.37583256 0.09024863 -0.3526414 -0.33740082 0.040107295 -0.3341473 0.24405433 0.12344815 -0.1255997 0.677945 -0.0983729 -0.42077878 0.007721163 -0.53721416 0.30283585 0.44147918 -0.29746056 -0.25995836 -0.28343827 -0.17053504 -0.015974537 -0.56771755 -0.13229677 0.48023555 -0.12741697 0.22786483 0.20617536 -0.40380388 -0.060485143 0.33710423 0.12618124 0.30157176 -0.59417343 -0.46041057 -0.214703 0.04348036 0.34501186 -0.3871936 -0.64040774 -0.062609196 -0.08546635 0.08149041 0.04377551 -0.23505172 0.3159958 0.27198726 0.3214089 -0.06209372 0.60302544 0.08404068 0.33593 -0.5445661 0.08644211 0.16304015 -0.41442806 -0.3121949 -0.030554423 -0.17949758 -0.12074449 0.34912106 -0.30382186 0.31609237 0.029667165 0.40342796 -0.10093579 -0.79084593 -0.7075133 -0.1253701 0.2761584 0.55187696 -0.38308844 -0.06528751 -0.016623326 -0.08854433 0.37132233 -0.03761956 -0.1047405 -0.16524099 -0.49525946 0.31775597 -0.05749847 0.24600524 0.15749249 -0.42699203 0.10242389 0.03942527 0.22743066 0.2421605 0.108072594 0.12640174 0.39605108 0.06351232 0.1815423 0.05634503 -0.019522512 0.88411796 -0.24130356 -0.044034123 -0.21567819 -0.3480305
at 0.23124284 0.24987641 -0.69457346 -0.047367685 -0.54842156 -0.062424455 0.5393992 0.06525885 0.13479912 0.09592523 0.14158489 -0.67854035 -0.19889587 -0.517591 -0.00944693 0.042604614 0.074537165 0.5589765 -0.72287995 -0.45841524 0.010528793 0.07831656 -0.28886992 0.1398941 -0.26426998 0.13275363 0.31879902 -0.4705472 -0.1658366 0.27942073 0.3516819 0.045550473 -0.2385828 -0.019683037 -0.40535757 -0.3386955 -0.025695477 -0.65346825 -0.4444612 0.21532826 -0.016005715 -0.0073325615 -0.33499622 0.6313641 -0.2748206 0.15998234 0.08910875 0.17330718 0.80711204 -0.22446875 0.09245459 -0.454775 0.23378585 -0.0057751993 -0.31930602 -0.14145955 0.11891259 -0.5055662 -0.01619855 -0.15115687 0.0169116 0.09225783 -0.14180169 0.35827053 -0.23040225 -0.0034067775 -0.13652948 0.11425202 0.12743853 -0.13909352 -0.19373006 -0.7925097 -0.13146596 -0.21614063 0.10701544 -0.06318253 -0.03470692 -0.25991616 -0.76593107 0.25937787 -0.027291847 0.58041537 -0.18651992 -0.37404245 -0.31503072 -0.31851268 0.4622464 0.416821 0.53713614 -0.0018636503 0.25243786 0.3386996 0.30489486 -0.013262722 -0.48830923 0.23351423 -0.8037694 0.015693292 -0.36060485 -0.4136335
from 0.09146607 -0.023089183 -0.26607883 -0.10528348 0.24555713 -0.1033284 0.31016862 0.25707325 0.34945363 0.4182573 0.62724024 -0.55834615 -0.19229637 -0.33621696 0.3059179 0.46618035 -0.21498461 0.098596275 0.23440467 -0.26503614 0.13489491 -0.16953428 -0.020538112 0.2980357 -0.31394365 0.22586039 0.32189575 -0.2259259 0.10578269 -0.19387005 0.18239819 -0.106191404 -0.32186747 -0.02778872 -0.23480642 -0.17127351 0.43695882 -0.48846006 0.047936786 0.11797469 0.112414345 -0.14013529 -0.25531486 0.35301372 -0.09391837 0.1506242 0.27917728 -0.43660176 0.21667032 0.11677591 -0.11613786 -0.37214017 0.006288231 0.0099928705 -0.16921565 0.037042998 -0.12581508 0.15894426 0.2728531 -0.6030996 -0.15941772 0.07634278 0.12971056 -0.20183434 0.06800415 -0.2462232 -0.13815632 -0.24518763 0.09609946 0.5357206 0.69852406 -0.8931345 0.011183814 0.10090133 0.26850608 0.028244294 0.16259384 -0.24435197 -0.47963223 0.39270747 -0.043210275 0.47284347 -0.44254667 -0.030437669 -0.007943879 -0.35907704 0.14324327 -0.13279614 0.31847754 0.25646013 0.16944256 -0.04754815 0.5363318 -0.11852722 -0.19664337 0.33012635 -0.45195046 0.0008943639 -0.10768449 -0.63387316
are -0.1047409 -0.16137613 -0.34920973 0.31630868 0.044958677 -0.3107372 0.24342616 0.34859785 0.08478804 0.46055278 0.45370358 -0.051494017 -0.3441731 -0.25653425 -0.24385333 0.1399001 -0.16782536 0.054638192 -0.49725035 -0.26279283 0.09746938 0.11018509 0.051585976 0.10729168 -0.042185657 0.59918475 0.06745115 0.34447092 -0.013655707 0.28556952 0.31844383 0.44387838 -0.26142305 -0.12992544 -0.4022841 -0.17652877 0.17381123 0.25631607 0.2502608 0.32649317 0.45070416 0.02068592 -0.009870356 0.43846065 0.32093468 0.12995456 -0.06565082 -0.08391129 0.49267003 0.5839712 0.09021337 -0.5152215 0.23667228 0.15612501 0.048129015 0.36075085 -0.47417852 0.48531625 0.2493464 -0.2994333 -0.15995823 0.06778739 -0.1664541 0.014618681 -0.19976464 -0.34994748 -0.18632811 -0.23849112 0.105476856 0.3043442 -0.12140894 -1.0216445 -0.2748863 0.1200567 0.32110566 0.24326801 -0.3008676 -0.15637547 -0.17900401 0.77726024 -0.02045881 0.38501757 -0.042974032 0.23402312 -0.065231346 -0.2527962 0.24158381 -0.10022066 0.40554255 -0.32157367 0.15324925 -0.19954251 0.25744912 0.13321175 -0.40589967 0.28035524 -0.31990722 -0.27355978 -0.0035966453 -0.023460167
such 0.040121444 0.09404827 -0.47746414 0.0886437 0.2535327 -0.2827759 0.2088509 0.15945736 -0.07094855 0.37790182 0.4643133 -0.40869594 -0.1290953 -0.031910654 -0.17709972 0.36565003 -0.343433 0.025436379 -0.481064 -0.2434528 -0.12374482 -0.041400257 -0.49179444 0.32188663 -0.29519266 0.22731014 0.17760465 -0.05526397 0.042825013 0.052153207 0.14304371 -0.05329005 -0.16946895 -0.120905496 -0.35117155 -0.18223396 0.20076326 -0.119025126 0.08296814 -0.056072365 0.14871496 0.16749582 0.0063689384 0.20648216 0.032362755 0.11556907 0.120967984 -0.026724251 0.44359466 0.28511983 -0.15412088 0.0072113015 -0.15107752 -0.052564412 -0.120121256 -0.10152504 -0.16021764 0.06246637 0.2232127 0.062002532 -0.43867216 0.2007682 -0.33023608 -0.110527165 -0.046326812 -0.18080084 -0.50477415 -0.15210405 0.049641777 0.46831942 0.0016686374 -0.41344154 -0.3171272 -0.2252947 0.04551075 0.32536677 0.44394 -0.14830826 -0.44831014 0.59796554 -0.20766364 0.31907532 -0.15759628 -0.18037854 0.045234766 -0.15842727 0.02157581 -0.3156473 0.14592272 -0.12241792 0.12114939 -0.087645784 0.30207255 -0.05192316 -0.3700822 0.36578187 -0.3504991 -0.33136222 0.3240518 -0.2335823
person 0.090250164 0.2943215 -0.6015982 -0.030212456 -0.20078427 -0.37148234 -0.16438341 0.0035206105 -0.11494415 0.5232572 0.13070145 0.19343074 0.16063806 0.24934213 0.13947785 0.047077633 -0.7781035 -0.054444492 -0.46932417 -0.2310138 -0.3062419 0.0315763 -0.48625275 0.12371993 -0.14963289 0.22578435 0.40535924 -0.0057713557 0.117593296 0.0039493847 -0.1924568 -0.14504977 -0.11692324 -0.10356326 0.37224135 -0.53036284 0.38222358 0.053786732 0.023913799 0.021547968 0.2753168 -0.39116752 -0.2230016 0.21576838 -0.5742433 -0.08899649 -0.0472878 -0.22793698 0.15868662 0.2466049 -0.16632801 -0.27061954 -0.2089355 -0.26601624 0.059929546 -0.041838724 -0.28800052 0.072358735 -0.057408202 0.2904946 0.008408007 -0.10117162 -0.003359783 -0.04327988 -0.014474105 -0.42375633 -0.07385171 -0.118157625 -0.099683665 0.43849018 0.1194357 -0.60750186 -0.22453146 -0.19097002 0.06407984 0.57190365 0.1361263 -0.32410055 -0.37341028 0.16664751 -0.3207955 0.19356157 -0.037915695 0.015657488 -0.18232964 -0.13077554 0.07597578 -0.32147127 -0.43701643 0.08897937 0.034923848 0.06648164 0.46677247 0.17267777 -0.49514633 0.2839262 -0.55407554 -0.0251479 -0.14515136 0.021820405
l 0.2599796 -0.033893302 -0.85445446 0.10323621 0.38365635 -0.007753056 0.08993003 0.06952449 -0.01086274 0.44294673 0.0020466403 0.06840281 0.18292838 -0.308816 0.13915987 0.16744904 -0.48966223 -0.6465048 0.040871684 -0.52730656 -0.33930302 -0.28075463 -0.04855698 0.28359044 -0.2751843 0.3275089 0.5193896 -0.103561856 -0.2513278 0.34018734 0.10702481 0.10213824 -0.0926644 -0.5717018 -0.09099994 0.15451275 0.5111291 -0.75480294 -0.80576605 0.48692703 0.16448154 -0.26650557 -0.41677433 0.061250363 0.21139015 0.07892727 0.79954207 0.29726505 0.061173294 -0.23258734 0.16453387 -0.12832187 -0.35716435 0.12694645 -0.21555808 -0.4392758 -0.38655797 -0.6188504 -0.45451993 -0.2541489 -0.10511505 0.08177576 -0.45203155 0.6469887 0.07170373 -0.2660917 -0.0033872381 0.1024276 0.33455965 0.05731545 -0.05710506 -0.622463 0.19404657 -0.09647245 0.26587653 0.050947316 -0.28082132 -0.1680578 -0.42499334 0.4676491 0.14945507 -0.2566522 0.06114345 0.43867195 0.36960047 -0.4600498 -0.155252 0.3198319 -0.16186367 -0.3696242 0.40072098 0.06582968 0.6691984 0.023599802 0.1539627 0.20499647 -0.014755402 -0.019740665 -0.256607 0.4320112
if 0.07926019 -0.104036145 -0.507354 0.09694477 0.44455802 -0.061309934 0.03388697 0.15073334 0.04522849 0.39237285 0.3602493 -0.33826846 -0.2800253 0.11660371 0.2666104 0.37783468 -0.4357563 0.120522745 -0.23999694 -0.27679685 -0.0012498988 0.26657856 -0.12457905 0.37945163 -0.29939282 0.24199292 0.25421098 -0.2201795 0.1877589 0.00727539 0.34650636 -0.27719283 -0.269658 -0.11083553 0.06861154 -0.29556438 0.030645669 0.04313413 -0.18328378 -0.027976003 0.4479432 0.26334244 -0.14691027 0.1144919 -0.24175741 0.112276435 0.15740916 0.10165045 0.8765431 -0.15066703 -0.10729535 -0.32050171 0.14426924 0.04195319 -0.27398148 -0.11351496 0.027123522 0.065138765 0.27004567 0.13030893 -0.33996835 0.11185342 0.08741251 0.022855032 0.08320381 -0.45382586 -0.22090092 -0.008277017 0.08755995 0.15190586 -0.13408704 -0.62383455 -0.10970491 -0.030314645 -0.052676048 0.45219463 0.09646894 0.04693913 -0.33640748 0.58817863 -0.041457843 0.27347335 -0.15019985 -0.14377435 -0.39116734 -0.19843936 0.045650247 0.12951627 0.05869458 -0.032754213 0.1727011 -0.12970886 0.46491432 0.13414212 -0.3391662 0.4454267 -0.54817593 0.0069785914 -0.05244431 -0.23103333
it 0.06523925 0.04345188 -0.6751258 -0.21179856 0.30737245 -0.21167646 0.32281652 0.09110407 0.01020063 0.5285686 0.33778757 -0.15775855 -0.21260858 0.25048503 0.33031946 0.19497831 -0.18562269 0.17746963 -0.5072011 -0.20646854 -0.18907942 0.24429397 -0.34792876 0.33383107 -0.29063392 0.3019125 0.10111508 0.017526688 0.055012487 0.19158907 0.088747114 0.114123106 -0.40141568 -0.25818518 -0.23701608 -0.10996745 0.062011365 -0.23803307 0.068611406 -0.0041042813 0.16963321 0.20127435 -0.26264292 0.04588544 -0.1869485 0.21116395 0.25126794 -0.043660294 0.7666823 0.10693792 -0.17571445 0.09153917 0.097059846 0.1921862 -0.22344953 -0.15200669 -0.3444195 0.21266846 0.23893748 0.12734851 -0.28843865 0.14885817 0.008246618 0.0056664916 -0.026730698 -0.15338418 -0.17827252 -0.0965489 -0.26722875 0.04726809 0.0032224252 -0.66998553 -0.059146244 -0.1959604 0.25005576 0.12293561 0.1110709 -0.060758192 -0.5870451 0.40754145 -0.14808983 0.4508396 0.012505544 -0.28846645 -0.1828084 -0.36447474 0.13318992 -0.038365066 0.033360314 -0.1021624 0.26281196 -0.41650373 0.53868616 0.21916667 -0.32875606 0.13291912 -0.6001087 -0.13033882 0.29676262 -0.08610409
’ -0.17395493 -0.19432114 -0.2637009 -0.17311677 0.27534392 -0.23110382 0.12867129 0.47183076 0.002690716 0.4670375 0.10671006 -0.31572235 0.16387704 -0.05748048 0.08114299 0.0914831 -0.33606666 -0.07045793 -0.38247296 -0.24455488 -0.030374115 -0.17871115 -0.25201356 -0.10484485 -0.35042846 0.33769965 0.11244202 -0.37852135 -0.09806773 0.0008326788 0.3972355 -0.088967085 -0.1074398 -0.29521188 -0.37489563 0.20349976 0.47229928 -0.56862193 -0.5889226 0.12287895 0.2915995 0.043863826 -0.13219185 0.031178318 0.027346253 0.3698984 0.30673745 -0.18345813 0.70166117 -0.01555632 0.025270252 -0.5174367 0.13966905 0.28688312 -0.04271128 -0.08105405 -0.15850739 0.025306938 -0.37683162 0.08493272 -0.24600981 -0.049416672 0.07922462 0.23259586 -0.17170948 -0.5893015 -0.50432533 -0.016447151 -0.065855995 0.70554787 0.03209134 -0.27576524 0.25376353 -0.2709646 0.28598183 0.18162215 0.11536933 -0.31038022 -0.08236456 0.4644903 -0.31583992 0.4040173 0.02563394 -0.17318691 -0.0893929 -0.18234122 0.20487374 0.08449672 0.67089534 0.15379693 0.23271851 0.06891047 0.1907164 0.15871446 -0.054578952 0.6868872 -0.46423286 -0.2740327 -0.15072146 -0.40597305
has 0.2912873 -0.19235605 -0.31691623 0.10114469 -0.044598453 -0.4303878 0.12652291 0.40578312 0.4188223 0.72115046 0.26667413 -0.20064414 -0.38945636 0.184659 -0.28695306 0.13675292 -0.28528404 0.066476375 -0.72652483 -0.17466752 -0.22101651 0.06835138 -0.30188224 -0.11195656 -0.40815428 0.092731684 0.12037348 -0.3814188 0.3258689 0.18248613 -0.06626852 0.12978071 -0.28558314 -0.1642898 -0.43296754 -0.17321993 -0.09268881 0.16600244 0.02769085 -0.003755748 0.04792987 0.2908422 0.10581511 0.027618125 0.32271802 0.50561213 0.27247587 -0.39104795 0.8523718 -0.061842106 -0.2587776 -0.68361884 -0.13277386 0.11400431 -0.08963919 0.04903723 -0.44416505 0.26684 0.14957015 -0.071197815 -0.6830585 -0.2238432 0.4264362 0.06468649 -0.079386175 -0.12837137 -0.6437145 -0.222716 0.06982439 0.21340732 0.098977305 -0.72404516 -0.08417948 -0.030026197 -0.018867292 0.6538573 -0.18865766 -0.13860595 -0.28289166 0.38060537 -0.17135932 0.03992527 -0.16949528 -0.2899552 -0.15213357 -0.21940076 0.07741062 0.09292969 -0.10959874 0.12860735 0.35357738 0.13032964 0.35381043 0.2658236 -0.30804154 0.004822013 -0.4772149 0.19815794 0.06617836 -0.3754294
order 0.15644766 0.41490924 -0.37633014 -0.28017336 0.42767394 -0.21785744 0.37871292 -0.150515 0.0054485 0.32243598 -0.03106555 -0.6075082 -0.28892583 -0.03438367 0.34404713 0.32793838 -0.43524042 0.0075679882 -0.025564153 -0.4312967 -0.34997556 0.047017187 -0.16040242 0.21683335 -0.22651453 0.29221183 0.543088 -0.056665212 0.34129483 -0.0023607018 -0.01878383 -0.21242431 -0.3512093 0.06752545 -0.08862596 -0.026573071 0.5189254 -0.04096047 -0.3529053 -0.3148738 -0.16939569 -0.26265255 -0.5734036 0.40461683 0.031093514 0.69631016 0.23339269 -0.19569643 0.3218148 0.25974697 0.5335826 -0.10806411 -0.6325724 -0.10889347 0.4109899 -0.12951066 -0.55829567 0.174979 0.31639302 0.04674264 -0.23913963 -0.3981173 -0.019047316 0.20822413 -0.6026576 0.062116012 -0.27991393 0.12978154 0.18987146 0.13304338 -0.19286714 -0.5824591 -0.057973504 -0.011653928 0.0243222 -0.1895171 0.3361865 -0.13949561 -0.12736568 0.37587872 -0.15425855 0.11141899 0.100486055 -0.12580709 -0.18270028 -0.16962816 0.2688619 0.06890062 0.35572907 0.30424723 0.10586601 -0.009409387 0.4978232 0.015181077 -0.7771678 0.5707375 -0.5651951 -0.19976658 -0.061793376 0.02599355
item -0.3624022 0.4493363 -0.6787871 0.15716903 -0.10146175 -0.45069212 -0.7010983 0.24713713 -0.49945378 0.057611287 0.2134885 0.0017914174 -0.55017745 0.48971152 0.46101874 0.00053780084 -0.3764185 -0.45095918 0.5170047 0.12362987 -0.43099552 0.3355089 -0.22070336 0.5311988 0.124992825 -0.11107913 -0.29852986 0.41530415 0.7610732 -0.0019856563 -0.37972134 0.10468954 -0.011065929 0.86331576 -1.018313 0.145352 -0.10687732 -0.5298834 0.089236766 0.3054749 -0.14445192 -0.44798365 0.507662 0.12681189 -0.19145198 0.71078736 -0.35439274 0.052554697 0.4049039 0.3560743 0.043811798 -0.30629984 0.18643469 -0.20081984 0.0863382 -0.54457426 -0.42484003 -0.05933847 -0.20166871 -0.41944242 -0.39485148 -0.98020995 -0.44623506 -0.08097591 -0.29214543 -0.20050348 0.114793114 -0.35113004 0.03979301 0.13339575 -0.43272215 0.33774877 -0.6140479 0.02932253 -0.34579 0.34097776 0.0035122999 -0.6116131 -0.45920599 0.38818407 0.13448203 -0.048127007 -0.11501648 0.26598936 -0.6180913 0.003077705 -0.4807658 0.23479608 0.027055766 -0.14794238 0.3551639 -0.2226058 0.06053795 -0.55653113 -0.44672975 0.42682588 -0.061417203 0.29075202 0.2162672 0.28137073
// -0.6916417 0.042825516 -0.12244619 0.053821657 -0.36759362 -0.48837933 -0.6469381 -0.37400293 0.041255925 -0.19640882 -0.16277221 0.5314413 0.4310257 -0.32093263 1.124683 0.5537936 -1.2876042 -0.27677074 -0.05720372 -0.021220097 0.0362719 -1.0141834 -0.39409783 0.28673843 -0.46216604 0.059830897 -0.045661166 0.22630145 -0.28851458 -0.9858748 0.15984935 -0.07144121 0.28589755 -1.0279964 -0.39382753 0.15112665 -0.38018805 -0.77662915 -0.49252728 0.009398781 -0.31133536 -0.601 -0.8358622 -0.29561996 0.079437144 -0.5476694 -0.13245274 0.47848436 0.079268925 0.005775177 0.77965987 -0.61294824 -0.40796065 -0.33204332 0.21448848 0.45875338 0.40772885 -0.30877882 -0.50872 0.09134487 -0.0021870506 -0.45549023 0.11977997 0.0054445523 0.651589 0.5634085 -0.25153792 -0.40742403 0.46072146 -0.08926068 0.60127324 -0.24419598 0.82978606 -0.030908413 0.51035625 -0.08416643 0.6210539 -0.014857258 0.005649408 -0.18008952 0.37738463 -0.30125162 -0.08422242 0.8778599 -0.39250234 0.54869646 -0.5674495 -0.09473263 -0.4643568 -0.40457824 -0.5392676 -0.55040807 0.32539743 -0.052607723 -0.7461306 -0.17760655 -0.5439889 -0.6415392 -0.62200904 0.09884394
regulations 0.13154526 -0.027023025 -0.30115268 -0.2091406 0.21647033 -0.15349342 0.2079073 0.2507304 0.1092784 0.3427509 0.6843353 -0.5302596 -0.21770537 -0.02110927 0.047355115 0.24606706 -0.41570467 0.47911695 -0.5298474 -0.1843019 -0.50652516 -0.21460159 0.16956483 0.5205159 0.10946061 0.17543925 0.41077265 -0.2792936 0.12805583 -0.26064903 -0.01528558 0.28876063 -0.1881928 0.33935136 -0.36670408 -0.4345515 0.10853961 0.007815338 -0.15790483 0.21395163 -0.2085795 -0.15269068 -0.06752209 0.5895137 -0.071634814 0.19764073 0.03422884 0.27272415 0.42840633 0.3490249 0.18825755 -0.21852584 -0.01969611 0.066800945 0.16253519 -0.48814428 -0.6521825 0.48315513 0.24396853 0.12688604 0.2526323 -0.2735171 -0.12851727 0.39562517 -0.18768296 -0.3312665 -0.2250474 0.28713673 0.3978345 0.28287306 -0.007909038 -0.030330554 -0.18103364 -0.23034054 -0.10613791 0.43774498 0.12992766 -0.27684563 -0.046796434 0.6422729 -0.045839515 0.048883174 0.08999928 -0.23205476 -0.22348139 -0.45973057 -0.042552378 0.110079326 0.49884504 -0.10163213 0.35067666 -0.24812399 -0.024224423 0.29624408 -0.22208956 0.299118 -0.06977071 -0.26988798 0.04134317 0.20598178
legislation -0.021902973 0.09909692 -0.004186386 -0.404097 -0.0949199 -0.32264873 0.4899654 0.21507256 -0.13178262 0.65040314 0.5400354 0.14156054 -0.06862008 0.43153504 0.5060537 -0.26150247 -0.08369145 0.5598491 -0.73560566 -0.22613394 -0.44904134 -0.15276003 0.08982259 0.24456282 0.32142833 0.29352844 -0.081031844 -0.15402849 0.35866952 0.09701857 0.64664006 -0.25217986 -0.59274983 -0.3041409 -0.31933486 -0.78078145 0.0136621725 -0.1519903 0.2211302 0.21887355 -0.05199707 -0.041517735 -0.28230476 0.10511513 -0.023078451 -0.5514072 -0.36806533 0.29004228 1.0173371 -0.00049632706 -0.23674814 -0.17634165 -0.17994882 -0.18361796 0.4565924 -0.2102346 -0.60759896 0.23466238 0.1582737 -0.08447793 0.54689115 0.30020255 -0.09696307 -0.09994152 -0.14241904 -0.1917429 -0.15765612 0.33716473 0.0752056 0.06519614 -0.032461807 -0.76808375 -0.60884774 -0.13137972 -0.64275396 0.71287733 0.26467726 -0.12392276 -0.17061985 0.33526182 0.031895574 0.18325862 0.3079297 -0.5159543 -0.08300395 -0.42325068 -0.28730196 0.269249 0.16318986 0.031699564 0.24545005 -0.2688047 -0.09139937 -0.13199851 0.15888247 0.7464234 -0.25328314 0.31652948 0.28312063 0.2505782
* -0.17809702 -0.07722933 -0.4776201 -0.07355399 0.5650826 0.3008102 -0.017265521 0.34490442 0.15246542 0.686761 0.1768079 -0.58798134 -0.39481732 0.12113051 0.6926742 0.2964698 -0.2603513 -0.590024 -0.5373679 0.12593116 0.14371921 0.15310569 0.3713389 0.39459118 -0.27908203 0.036326654 0.051286828 0.39107987 0.28296256 0.74743557 0.045724787 -0.17759877 -0.37222368 -0.3413641 -0.37810284 -0.40141398 0.3891482 -0.34910956 -0.98880666 0.007752186 0.2812769 0.108909436 -0.16763708 -0.023268249 0.1360801 0.2863502 0.12094199 0.39236522 1.1568773 -0.1794952 0.021570671 0.17316867 0.0022417393 -0.012809938 -0.16673158 0.027189821 -0.43530712 -0.091307595 0.3141086 0.20546623 -0.037837803 -0.32913533 0.031172004 0.68414176 0.0076202303 -0.15227574 -0.21507049 -0.16636339 -0.052420784 -0.014146571 0.22719955 -0.20285785 0.07641284 0.4381938 0.3496567 0.15234268 -0.43517888 0.37021795 0.059633184 0.6666684 -0.09416835 -0.110955395 0.20330997 0.2531994 0.3249836 -0.34382394 0.34927687 0.5263309 0.17400286 -0.15872566 0.44968972 -0.018578798 0.3250154 0.4015579 -0.30310538 0.31793958 0.050366614 -0.27418992 -0.13182472 0.43671435
part -0.16805188 -0.523727 -0.21815026 0.09379613 0.46104676 -0.06888438 0.14346322 -0.03236004 -0.14358224 0.52255034 0.100438 -0.5774411 -0.18589307 -0.4674502 0.16722113 0.19859508 -0.47839248 -0.30338958 -0.31121027 -0.40185186 -0.40516886 0.6564112 0.037187584 0.11943157 -0.43666252 0.190544 -0.21505877 0.53058255 0.3856261 0.06723991 -0.11775025 0.090960674 -0.38130352 -0.031134041 -0.37383634 -0.577829 -0.0020376442 -0.54357415 -0.25419334 0.12181751 0.3294793 -0.27150446 -0.30322343 0.40891013 -0.10710531 0.24079597 0.03652953 -0.19313306 0.9099441 -0.14517412 0.18336113 -0.071175754 -0.20825014 0.12128896 -0.0513607 -0.018904727 -0.2816522 -0.5247116 0.29226494 0.43596828 -0.009158034 -0.22686528 -0.12449546 0.3212711 0.08931621 -0.18884666 -0.16464737 0.12636212 0.13990964 0.5095946 -0.47475547 -0.023124496 -0.44061333 -0.16774079 -0.10374141 0.23219085 -0.053023618 -0.7737752 -0.29060566 0.5460996 -0.777313 0.588784 0.20962624 -0.21053398 0.26452723 -0.056151256 0.17564732 0.12937683 -0.04132122 0.118847504 0.3085424 -0.017814297 0.4625272 0.005276269 -0.21005712 0.23372708 -0.75597477 -0.2222834 0.121959634 -0.15694863
http -0.91786075 0.7209199 0.414559 0.24875396 -0.43328416 0.7196931 0.10149977 -0.024907002 -0.3738838 0.9175391 1.2095095 0.6379834 0.47009236 -0.19348581 0.8219639 -0.76796365 -0.014192747 -1.4296485 -1.665245 0.4710188 0.10699512 -1.7387376 0.5558605 -0.16072395 0.10625225 1.0813906 0.3597599 0.29798126 -0.67779076 0.08134491 -0.5519115 1.1138524 -0.80926716 -0.66990644 -0.36822405 -0.297483 -0.6738744 -1.012169 -0.95237744 -1.2097805 0.40214866 -0.2732983 0.755486 0.055591162 0.023975296 -0.35727987 -0.9401589 -0.43077135 0.69844526 0.026704868 0.45653886 0.2997747 -0.16769896 -0.23211302 0.04871023 0.4621715 -0.16001736 -0.3933291 -0.28434592 -0.43121368 0.66137564 -0.54315615 -0.688132 0.32504347 0.15341346 0.10807457 -1.2980084 -0.63409466 0.38353595 -0.25899446 0.378768 -0.19287369 0.13957182 -0.14647643 1.230321 0.9080408 -0.8102461 0.30716228 -0.9518103 0.18175471 -0.81651765 0.047863744 0.039026096 -0.083326526 -0.38938186 -0.23830263 -0.5219205 0.685416 -1.0551603 -1.7275096 0.23540929 0.14842287 -0.11679681 0.4402941 0.86012226 -0.6703978 -0.108960256 -1.1106406 0.09893417 -0.37136427
subsection 0.36135912 0.15477122 -0.21342 0.11505002 0.072328836 0.15212822 0.0369056 0.28848106 0.085814774 0.53655237 0.27957878 -0.16904117 0.09881722 -0.075313225 0.73632133 0.2106317 -0.72662073 -0.06580401 -0.6298206 -0.20721614 -0.1745993 0.3874733 -0.05726554 0.5600997 0.033546504 0.03296241 0.32663798 0.036328476 0.40953416 -0.3802291 -0.15037315 -0.122288525 -0.43362015 -0.042306498 -0.12189969 -0.31117222 0.20677081 -0.2921332 -0.019606126 0.21640009 -0.27330402 -0.35658553 -0.086422496 0.046360523 0.08547663 0.20680414 0.034923803 0.16046736 0.8219849 0.2799619 0.14172679 -0.16990487 0.124673106 -0.3331546 0.4139339 0.06304225 -0.14975104 -0.06016719 -0.07653567 0.17159289 -0.023403782 0.2580825 -0.3807327 -0.20525405 -0.2537929 -0.45593688 0.13635905 -0.06738751 -0.49574533 0.12803777 -0.17826939 0.07932154 -0.27309644 -0.3132785 0.20527478 0.29875746 -0.3139389 -0.7240702 0.13514271 0.10680528 0.24310544 -0.20176288 -0.22294442 -0.34479004 -0.14934978 -0.5406032 -0.26541218 -0.4081368 -0.3126061 0.046655253 0.22040887 -0.26544827 0.22147453 0.5003225 -0.43613634 0.1611889 -0.19861153 -0.082015105 0.3997989 0.032212354
– -0.08091329 -0.07355599 -0.60530245 -0.074259095 -0.16637813 0.21447809 -0.51147544 -0.06161602 0.18631849 0.27523592 0.54981136 0.15831922 0.5052715 -0.57440686 -0.0039170897 0.10086475 -1.3463671 -0.53609866 0.10816328 -0.08751894 0.10252155 -0.62966096 0.20777896 0.3708732 0.28431165 -0.15352076 0.04021953 0.2052657 0.2635859 -0.336158 -0.11230721 -0.17011507 0.30624253 -0.47846764 -0.09083745 -0.12907082 0.020273717 -0.3752976 -0.13393763 0.35162675 -0.045993164 -0.3027932 0.085897446 -0.106085114 0.6426317 0.4839604 0.25991437 0.4146927 0.41007102 -0.3099383 0.09629036 -0.096426815 -0.4979107 -0.16618772 0.07682122 -0.18192983 -0.2291533 -0.19881484 0.1559488 -0.5724133 -0.4025392 -0.1530881 -0.92740047 0.250531 -0.5304883 -0.14447698 0.7222568 -0.12628229 0.58394647 -0.5523786 -0.30885157 -0.09506511 0.0613286 -0.38187957 0.11885141 0.08457274 -0.05755557 -0.27879974 -0.029503508 0.55993974 -0.07362338 -0.29052755 0.17770508 0.05736756 -0.5616722 -0.19281907 0.3544283 0.40873066 -0.35685396 0.07348287 0.13750684 -0.06481768 -0.27565008 0.056606647 0.07464541 -0.09097718 -0.06022657 -0.48605302 0.39694282 0.4347494
state 0.18268073 0.025306461 -0.49373373 -0.18550497 0.1433267 0.012666171 0.325083 -0.1076587 0.33373827 0.26701123 0.18789157 -0.2554502 -0.05865366 -0.19706759 -0.03526191 -0.4199103 -0.049173627 0.17292032 -0.2858725 -0.40255547 -0.09271569 -0.28804836 -0.32274956 -0.008454279 -0.14821593 0.2922551 0.584391 -0.47716257 0.11537049 0.13374656 -0.14146216 0.1246932 -0.20827399 -0.26466513 -0.27927557 -0.24997218 0.3319484 -0.008423111 -0.36206114 0.13345362 0.16429107 0.014531225 0.03719418 0.456509 -0.09946609 0.2576606 0.024506874 0.30747855 0.61300725 -0.011536646 -0.07021651 -0.37384653 -0.23341216 0.11269497 0.052886654 0.09150659 -0.4280618 0.36156428 0.069348074 0.10073102 -0.25891712 0.23485267 -0.059246108 0.34805146 -0.3201949 -0.5267589 -0.16444707 -0.024353364 0.19192962 0.3256566 0.10475643 -0.57423174 -0.5285917 -0.33191496 -0.1324032 0.30099392 0.40943316 0.023422781 -0.37095818 0.23273979 -0.27150938 0.55973965 -0.33715755 -0.02991794 0.16524777 -0.3871162 0.19614413 -0.07058585 0.17239359 -0.16836216 0.115056485 -0.2797221 0.0678634 0.13587281 -0.110286206 0.4068757 -0.41438848 -0.097615 0.22339231 -0.13108574
go -0.5391383 0.13489543 -0.77586204 -0.48540676 0.35187703 0.11427503 0.5097755 0.52369195 0.057885848 0.54082537 0.14376846 0.40184492 0.64944446 0.22946888 0.43124053 -0.8372874 -0.81498104 0.4015538 -0.6826468 0.27896824 -0.7104683 -0.20758845 -0.72237575 0.32317707 0.9905001 0.16126828 0.49717802 0.35954523 0.34354648 -0.15170519 0.08746735 0.3455087 0.020965794 -0.18448631 -0.7627734 -0.009581017 -0.89124185 -0.25484112 -0.76314485 -0.437893 0.5499582 -0.24250972 0.21326552 0.34932232 -0.36318144 -0.5234041 -0.18573338 0.22081657 0.37316087 0.37769398 0.40447426 0.07952171 0.24589843 -0.39329702 0.27022213 0.021655783 0.514202 0.4800494 -0.025912706 0.2909158 0.15348686 0.10223064 0.39539072 -0.5062789 0.3691556 -0.069500186 -0.2932221 -0.22915636 -0.34781963 0.30601278 -0.43541664 -0.75143754 0.09650917 -0.18552615 -0.38526934 0.33051288 0.4234564 0.11691551 0.091703355 1.0294317 0.24868272 0.27367043 -0.0631322 -0.35155675 -0.90634453 -0.08198833 0.46438465 0.2486386 0.16368262 -0.2828006 0.38385367 -0.46915424 0.5302993 -0.0021347343 -0.18977922 0.7064181 -0.28957063 -0.500946 -0.41091344 -0.28021097
v -0.5794972 -0.5950731 -0.22625491 -0.12812701 -0.5210037 -0.16496645 0.6398528 -0.31491828 -0.101146564 0.58435494 0.1882619 -0.6593124 0.2589976 -0.15729864 -0.21153788 0.10326786 0.03165695 0.3268909 0.21415837 -0.65695053 0.19693917 -0.3701728 0.04133609 0.41383362 -0.4563301 0.77403927 -0.14989503 -0.85782355 -0.17789136 0.4530246 0.38242546 -0.38762677 -0.17928563 -0.32396883 -0.46143818 -0.029468233 -0.53839844 -0.45846176 -1.1130725 0.68275124 0.61522424 -0.26015908 -0.43479317 -0.16347457 0.43944383 0.525805 0.45601305 0.29836723 0.42326155 -0.40173152 0.51218 -0.09172315 -0.24677971 -0.20665745 -0.37102318 -0.904666 -0.07553592 -0.9044518 -0.066690154 0.05736777 0.06553128 -0.03156282 0.35035482 0.40846005 0.08416407 -0.42881647 -0.0696599 -0.338883 1.1093954 0.41366816 0.22909336 -0.8161785 0.029164642 0.108941905 0.17724606 0.21740592 -0.42145208 -0.45163286 -0.9123449 0.09006126 0.24799684 -0.3463125 0.0670062 -0.10006397 0.30468166 0.17930108 -0.27174172 0.3944198 0.71214414 -0.18476556 -0.21476027 -0.2302556 0.30667675 0.2104927 -0.10220212 0.5884886 -0.2205248 0.65904576 -0.20056425 0.06041167
made 0.0031285214 -0.086579494 -0.6958983 0.27518556 -0.049315814 -0.11928277 -0.06802292 0.24108486 0.05583072 0.7925673 0.13176617 -0.52069205 -0.16842744 -0.015123066 0.063638225 0.17036492 -0.50940984 0.2340265 -0.18697707 -0.34843054 -0.09165481 -0.15589511 0.005486559 0.16341604 -0.35657912 0.40467927 0.1362267 0.21430199 0.06522394 -0.0048390743 0.33909813 -0.03242926 -0.3236497 -0.117145896 -0.01554383 0.10205264 0.04120227 -0.49822137 -0.08217588 -0.09539419 0.3350143 0.28090298 -0.34284744 0.40777338 -0.0514359 0.17904234 0.10691069 0.097060315 0.61857474 0.03665492 -0.186793 -0.44090688 -0.28571144 0.06423607 0.26389438 -0.12525938 -0.24777587 0.1554931 0.09159815 0.23332497 0.037259974 -0.1708702 0.1636089 -0.09429735 0.1543589 -0.13692917 -0.3496868 0.16688585 -0.11002998 0.48564008 0.21157663 -0.12474572 -0.3420586 0.15004478 0.1290422 0.2682689 0.48697978 -0.07067519 0.12506527 0.71316403 -0.32606065 -0.10268807 0.46441123 -0.061388843 -0.35804632 -0.17149489 0.20594457 -0.30553705 0.031068847 -0.23061179 0.1700713 0.18710023 0.3649731 -0.14247759 -0.44487962 0.34118515 -0.53176856 0.08748572 0.26037046 0.0031993124
- -0.241454 0.082504496 -0.40766838 0.23572423 -0.21263842 -0.21071161 -0.11822531 0.36392584 0.019543134 0.66473037 0.4876445 0.5843467 -0.5366999 0.09551306 0.03850907 0.07441854 -0.5845444 0.04836197 0.027985515 0.26996657 -0.026360754 0.19980319 -0.12544188 0.029330475 -0.1377521 0.038605794 0.20099907 0.17771623 0.36573768 0.4670066 -0.09420792 -0.055756304 -0.4637425 -0.55455977 0.09651393 -0.04219419 0.24453418 -0.7602204 0.3199173 0.024199536 0.017209103 -0.20965417 0.19351941 0.095210366 0.049842626 0.4049246 -0.0011395005 0.7164805 0.2466814 -0.4028739 -0.10274721 0.06758094 0.12961203 -0.3024262 -0.07945086 0.0021159681 0.05530231 -0.041143056 -0.23678134 -0.3932028 -0.4785255 -0.50175524 -0.37492096 0.44607788 -0.0014126732 0.056620255 -0.24978179 0.003938365 0.11054505 0.3554788 0.47734252 0.09950756 -0.13032347 -0.4952809 -0.4044538 0.14827973 -0.313298 -0.4191399 -0.6375877 0.4556124 -0.30404237 -0.4144087 0.22460243 0.060388412 -0.34097522 -0.77534443 -0.010658577 -0.12039163 0.05984446 -0.34485692 0.05365894 -0.44927397 0.54236263 0.057935875 -0.34688756 0.5133716 -0.32567248 0.043227736 -0.054971665 -0.25706315
i 0.098005645 0.15038946 -0.67049134 -0.19086468 0.501962 0.08953706 0.27850682 0.06409085 0.10463275 0.50522584 0.4443576 -0.112987645 -0.16136657 -0.049927656 0.42514622 0.118710704 -0.5252588 -0.2495259 -0.39377606 -0.1687781 -0.05976547 0.36002818 0.057058904 0.26827556 -0.5579311 0.05912091 0.08969065 0.43349823 0.24405801 0.15718664 0.29680446 0.17038977 -0.013904721 -0.31307033 -0.13215555 -0.10615727 0.2193956 0.07682032 -0.50662297 0.3913808 -0.020739524 -0.09154847 -0.44373217 0.30655012 0.22086354 -0.034835 0.35269576 0.42617452 0.75674045 -0.015780058 0.5436845 -0.2168618 0.16552244 -0.032787733 -0.24402125 -0.19890258 -0.47796854 -0.06760591 -0.34053335 0.060384758 -0.12384856 0.12205772 -0.26984057 0.5317226 0.3199209 -0.3494316 -0.5172869 -0.24358866 -0.19824871 -0.17017218 -0.2548578 -0.5386756 0.29222718 -0.074231714 0.5444184 0.1700018 -0.07478226 -0.36592704 -0.15983966 0.2966951 -0.19531679 0.2439731 0.379431 -0.45623744 -0.098077856 -0.2729771 0.51851565 -0.010820346 -0.18534176 -0.28497916 0.23871215 -0.49678302 0.3779493 0.018424645 -0.23797071 0.17063734 -0.53882354 -0.07615407 -0.29569256 0.3134058
where 0.036643796 0.03152903 -0.38390338 0.23049845 0.29759905 -0.19872874 0.20098795 0.3740388 -0.0052737216 0.4511219 0.36363998 -0.18424608 -0.40767363 -0.08800564 0.015069664 0.269675 -0.32824594 0.0057322304 -0.29466307 -0.3687297 -0.22709523 -0.04886882 -0.17063561 0.22758563 -0.16490181 0.22986804 0.17454249 -0.1050933 0.35173073 0.08056165 0.14508107 -0.46409363 0.109892346 -0.103972465 -0.30577958 -0.47864553 -0.11704419 -0.06799034 -0.2740369 0.049968492 0.26615262 0.023018504 -0.13715832 0.13060914 -0.45381805 0.02034927 0.13752007 0.22810422 0.6346853 -0.17681259 -0.1501171 -0.4119188 -0.008754379 -0.110776484 -0.2518835 -0.12280309 0.00450075 0.013081678 0.29934776 -0.005300283 -0.42050156 0.14727317 -0.017983805 0.10742941 0.10537641 -0.44437593 -0.025366725 -0.046047337 0.22713147 0.1513364 -0.12220481 -0.27283534 -0.2564412 0.07232328 -0.00046789396 0.3525364 0.13544562 0.017124234 -0.4177376 0.43292114 -0.010232801 0.19050166 -0.37681732 -0.13408394 -0.40461832 -0.21668987 -0.07211338 -0.056957852 0.06015995 -0.16118324 0.2281295 -0.2117219 0.31955045 0.006225707 -0.21567723 0.46247774 -0.79273784 -0.05177399 0.1048254 -0.25705492
than 0.15840097 -0.021935795 -0.35125396 0.14231429 -0.17926034 -0.3734255 0.2597207 0.29969215 -0.13596575 0.24198803 0.36880156 -0.35247687 -0.42840675 0.11252588 0.22794361 0.26745442 -0.33176818 -0.18616562 0.05168798 -0.18044625 -0.06991044 0.024521425 -0.25790972 -0.11005752 -0.3059931 0.28902048 0.13446884 -0.028284889 0.21825418 0.43704134 0.32905528 0.3550326 -0.12792562 -0.2940298 0.04953182 -0.44394824 0.5687281 -0.18534796 -0.15861167 -0.0634078 0.28411245 -0.28357366 -0.1320882 0.5668251 0.38937467 0.06742969 0.21292357 -0.06873149 0.2466445 -0.26505715 -0.23751368 0.2430936 0.29710004 0.12605351 -0.16867317 -0.10776042 -0.30968836 0.48835358 0.16815099 -0.14161085 -0.27207407 -0.08749295 -0.051916856 -0.1735526 -0.07370915 -0.24422581 -0.34733787 -0.06714209 0.09574667 0.5831002 0.16282298 -0.6545376 -0.3785742 0.018954476 0.2551312 0.2898201 0.16323741 0.057393454 -0.56874096 0.6295007 0.110928446 -0.003154301 0.041409332 -0.12329209 -0.23609962 -0.11875623 0.07135421 -0.44539693 0.18703783 -0.29159397 0.28825524 -0.14914049 0.6544996 0.16328408 -0.3963717 0.40958163 -0.40303746 0.13695252 -0.005089193 -0.2593932
d -0.19419815 -0.04094584 -0.5979989 0.325706 -0.068283044 -0.14150044 0.031852584 -0.5068982 0.0768211 0.85911936 0.0852016 0.18878609 0.07563433 -0.6674494 0.6270676 0.29417604 -0.45138803 0.13896193 -0.15597314 -0.353967 -0.4625989 -0.5661086 0.53837425 0.39250112 -0.15346298 0.5499945 0.6761378 -0.013833675 -0.38723868 0.43225232 -0.05975056 0.17322618 -0.58523035 -0.59760475 0.043677054 0.2275022 0.28006366 -0.3049179 -1.0164324 0.20347539 0.089590885 -0.22493885 -0.31324545 -0.21982548 0.35416928 -0.1929811 0.40719607 0.08167103 0.6068763 -0.3469925 0.13616015 -0.77717614 0.024061622 -0.37984562 0.2310461 -0.50794226 -0.23573114 0.043983612 -0.37116852 0.035183415 -0.3578795 0.028005319 -0.5897006 0.5649915 -0.7352317 -0.39547384 -0.045752313 -0.2662314 0.18119425 -0.29820022 -0.116486214 -0.49072114 -0.10663268 0.03974174 0.36002332 -0.1677675 -0.1674398 -0.10484842 -0.5799804 0.44144621 -0.12151788 0.25479108 -0.033763558 -0.63013923 0.09795096 -0.29460427 0.0007780273 -0.14998852 -0.24017312 0.25581884 0.12837464 -0.32795817 1.087184 0.19918303 -0.5349883 -0.12783654 -0.5633211 0.17981684 -0.4527176 0.51086074
commission 0.23817073 -0.021544892 -0.42324814 -0.15610117 -0.021958824 -0.15259945 -0.06617456 -0.10479362 0.3108486 0.7377112 0.24423307 -0.022443624 -0.054684848 -0.03650385 -0.15252562 -0.20060562 -0.7794548 0.013118333 -0.36663374 -0.10788208 -0.49516693 0.14397962 -0.29251775 0.29790276 -0.1262686 0.20323975 0.20045902 -0.61516464 0.34277976 -0.15828536 -0.034886632 0.124975435 -0.17248857 -0.058424767 -0.3177382 -0.3467476 0.3105773 -0.16015221 -0.45748335 -0.08677188 0.16350181 0.078691214 -0.18309352 0.15211968 0.08282732 0.060793366 0.33754894 0.14354049 0.7051932 0.2078101 -0.3454677 -0.13988917 -0.26551333 0.17616645 0.274324 -0.18655989 -0.29347908 -0.296128 0.02832892 0.6308246 0.16815126 -0.6127573 -0.117960624 0.3911406 -0.48819533 -0.21402006 0.05020553 -0.18355115 0.33279023 0.13112307 0.22484675 -0.20865752 0.008079383 0.09827217 -0.19651438 -0.14107536 0.15622866 -0.12724009 -0.17996362 0.026433533 0.13268387 0.30675164 0.11633703 -0.067650944 -0.21388625 -0.48291478 0.038530093 0.0015138864 0.41733986 -0.52161133 0.32060036 -0.26087943 -0.10237416 0.059116356 -0.20711397 0.19079296 -0.0135468105 -0.3618837 -0.039483942 -0.0454585
-- -0.0068680653 -0.14182696 -0.4627996 0.5343424 -1.1934984 -0.838562 -0.8292916 0.85149103 -0.7333073 0.9050141 0.8188221 0.5827584 -0.82991385 0.29442662 0.56170464 0.60321766 -0.84953547 0.59128195 -0.007453032 0.74338704 0.5444912 -0.34390143 0.23417823 0.43190527 0.015739435 0.38090235 -0.5920518 -0.13380027 0.009349477 0.8493589 0.11148665 -0.17430472 0.1156038 0.058303665 -0.54596585 -0.004170757 -0.32105944 -1.3572625 0.15337074 0.72271514 -0.20190759 -0.8183508 0.7010316 -0.29015774 -0.041638542 0.70723593 -0.19231802 0.7482354 0.56994736 -0.5954592 0.2526121 0.19649263 -0.5168901 -0.27133274 -0.35145208 0.21014805 -0.49248475 0.42985466 -0.54574925 -0.5817088 -1.152838 -0.38561237 -0.7443083 0.44416407 -0.7816576 0.9498307 0.30163783 -0.31193095 0.75146544 0.6111875 0.59553874 -0.8066359 -0.39699015 -0.14483663 -0.023522526 0.16625336 -0.475005 -0.5518979 -0.61336046 0.32563934 -0.14605425 -0.8255207 -0.108998 0.28946334 0.33995956 0.053327356 -0.38127077 0.39581364 -0.24770084 -0.3081126 0.7430636 -0.41183162 0.47778484 -0.17265719 -0.14465916 -0.40394124 0.072226346 -0.1787413 -0.3349521 -0.82164407
after -0.04348485 0.09994015 -0.40624884 0.298346 -0.08623054 -0.1677563 0.0052403333 0.13304108 0.4086092 0.670476 0.50475186 -0.2729842 -0.49995843 0.28866652 0.1816764 0.36960074 -0.49456742 0.18216017 0.017046224 -0.42288136 -0.23960772 0.2060942 0.011020899 0.060614295 -0.41129273 -0.14652069 0.40138736 -0.3994586 0.25936267 -0.0065537635 0.35483816 -0.16718455 -0.5605925 -0.34079793 0.05455458 -0.36806253 0.301996 -0.3017586 0.14430785 -0.47484004 0.59421927 0.11174337 -0.20692652 0.30727983 -0.20586401 0.20032996 0.26613358 0.015743833 0.5260659 -0.3206512 0.2383576 -0.33075678 0.08806898 -0.06603995 -0.04455203 0.2113167 0.10854527 0.09888588 0.15923609 -0.19624008 -0.0573402 0.019421658 0.20768197 0.47634044 -0.0037113593 -0.18619248 -0.025317647 -0.0020866727 0.05183598 0.2939696 0.29126018 -0.30919832 -0.02792266 0.082608886 0.09579881 0.0063690306 -0.06412225 -0.4170784 -0.3336138 0.30734792 -0.28520542 -0.05961285 0.16133983 -0.18309283 -0.18739313 -0.7016918 0.36894533 0.07934119 0.4499894 0.030581186 0.24460752 0.3047362 0.6277947 -0.6634099 -0.3328449 0.25968772 -0.41024208 0.09495932 -0.07013575 -0.6615924
schedule -0.5394887 0.08130047 -0.3009578 -0.094514735 0.44432086 0.3645401 -0.32731888 0.58141434 -0.0022590286 0.19049552 -0.0862557 -0.12617084 -0.09212305 0.27848104 0.63421816 0.35164368 -0.5494846 -0.5008549 -0.2739997 0.06962044 -0.33633184 0.54134625 0.43602926 0.41014883 0.3972911 -0.15941003 0.32938686 0.226989 0.73233396 -0.31548104 -0.5254525 0.36923108 0.22688495 0.31517047 -0.38136142 -0.046453923 0.10222155 -0.45641726 0.5534868 0.5091172 -0.13476866 -0.23569414 -0.18861853 0.57245755 -0.21361974 0.09230915 -0.24617845 0.20717186 0.7810539 0.20716558 0.6579931 0.013354833 0.24512257 0.119348206 0.33416256 -0.35044533 -0.34144408 -0.21263172 0.13768287 -0.029272914 -0.079914466 -0.71864843 -0.60307455 0.6425063 -0.1908458 -0.26806974 0.21432537 -0.008654254 -0.16962025 0.14076118 -0.2959492 0.32582754 -0.06109851 0.0858911 -0.053539384 0.41838095 0.09699607 -0.35119337 -0.22884141 0.40195855 0.27474287 -0.19994831 0.116242185 0.4152241 -0.0674687 -0.11769828 -0.21131025 0.15442987 -0.23429956 -0.1705134 0.0827769 0.06610548 0.0310187 -0.2439927 -0.16915905 -0.07422063 -0.13405018 -0.24034917 0.028955618 -0.03688726
have 0.25712836 -0.15732376 -0.53786093 0.2240273 0.025324244 -0.338887 0.42658246 0.13854763 0.257987 0.574744 0.39379394 -0.1461785 -0.3858938 0.18456434 -0.16400367 0.4126137 -0.40772757 0.023897812 -0.72263336 -0.15181881 0.008214579 0.055377904 -0.50301933 0.13731034 -0.18785125 0.06985944 -0.10762056 -0.050623048 0.4426153 0.031729497 0.18862385 0.38537997 -0.14912026 -0.05142523 -0.23493177 -0.06820384 -0.07092265 0.058788277 0.020678284 0.08983583 0.12120876 0.45077538 0.010279577 0.32714874 0.25174314 0.29741076 0.36506364 -0.20780924 0.91998774 0.12680537 -0.082371205 -0.5816155 0.19921197 -0.11882365 -0.17478307 0.1303433 -0.46262887 0.35114416 0.2677832 0.09668826 -0.5119296 0.04114372 0.03851487 -0.12695774 0.05702359 -0.09604763 -0.5831925 -0.49693707 0.030445326 0.09568615 0.3963698 -0.6968937 -0.12817094 0.2691449 0.09483346 0.4590413 -0.07219012 -0.08103966 -0.21509786 0.3046084 -0.37209696 0.14456135 -0.2519901 -0.03073692 -0.04154045 -0.143734 -0.025829073 0.07139346 0.26946795 -0.4509255 0.24172793 -0.035384957 0.29985374 0.07534298 -0.34015164 0.006498601 -0.5066625 -0.061185226 0.02461716 -0.5339955
member -0.28192803 0.21548305 -0.81090873 0.008231526 -0.0743788 -0.24515028 0.04445772 -0.28527182 0.2002524 0.532394 0.24873693 0.10778393 0.0034262196 0.30759367 0.4203562 -0.20952824 -0.5020962 -0.112976514 -0.10156738 -0.34466472 0.14576142 0.38314265 0.21002607 -0.040591575 -0.099534586 0.20985128 -0.10922278 -0.5186235 0.4660172 -0.24430493 -0.36047646 -0.15057138 0.060914315 -0.14550479 -0.22530937 -0.28186926 0.22686513 -0.18074241 -0.46408406 0.107117414 -0.0911012 -0.23600946 -0.21580946 0.14320631 -0.2609885 -0.07460987 -0.082706004 -0.4445559 0.28964087 -0.16089088 -0.269638 -0.19622706 0.0854874 -0.24891862 0.48223773 0.15093228 -0.3661101 -0.0054586404 -0.25705492 0.43192452 0.06566319 -0.2412261 0.061178457 0.18204714 0.100417584 -0.36247894 -0.018989362 -0.2733672 0.04476935 0.5355014 0.30963027 -0.19921865 0.012923379 -0.18121353 -0.40885657 0.4511564 0.17835 -0.009081227 -0.6200625 0.44809604 -0.075715214 -0.3446138 -0.11123519 0.26095137 0.057564024 -0.04320307 0.30838218 0.24915217 -0.5496875 0.39013562 0.1955592 0.24982363 0.10219121 -0.038066663 -0.4709774 0.7150836 -0.4682536 -0.22432148 -0.062320177 -0.28888994
